{"learner":{"attributes":{"best_iteration":"20","best_ntree_limit":"21","best_score":"0.5036784847405615"},"feature_names":["f_0","f_1","f_2","f_3","f_4","months_since_signup","calendar_month","signup_month","is_first_month"],"feature_types":["q","q","q","q","q","q","c","c","c"],"gradient_booster":{"model":{"gbtree_model_param":{"num_parallel_tree":"1","num_trees":"71","size_leaf_vector":"0"},"tree_info":[0,0,0,0,0,0,0,0,0,0,0,0,0,0,0,0,0,0,0,0,0,0,0,0,0,0,0,0,0,0,0,0,0,0,0,0,0,0,0,0,0,0,0,0,0,0,0,0,0,0,0,0,0,0,0,0,0,0,0,0,0,0,0,0,0,0,0,0,0,0,0],"trees":[{"base_weights":[1.0154207E-2,1.0599285E0,-5.577185E-1,1.1944226E0,9.1592926E-1,-5.203399E-2,-8.5825676E-1,1.1117439E0,1.3165781E0,8.094063E-1,1.0675751E0,2.240875E-1,-2.4777114E-1,-1.0337102E0,-5.00663E-1,1.2259712E0,1.0194246E0,1.500372E0,1.2801672E0,8.836696E-1,7.574848E-1,1.1767911E0,1.0022537E0,3.0312872E-1,-2.871656E-1,-1.1769992E-1,-6.205225E-1,-9.1521263E-1,-1.3272567E0,-4.101317E-1,-9.422126E-1,1.3148184E0,1.1757418E0,1.1253355E0,9.717003E-1,1.6655002E0,1.4326844E0,1.3824853E0,1.2142256E0,7.7518284E-1,9.413423E-1,8.0511534E-1,6.322351E-1,1.2807181E0,1.0159197E0,9.598868E-1,1.2139515E0,1.8205996E-1,5.1420856E-1,-5.0474834E-1,-8.754684E-3,-3.7570134E-1,3.8657866E-2,1.15501225E-1,-7.0459574E-1,-6.4556277E-1,-9.956107E-1,-8.7817687E-1,-1.4694221E0,-6.0002905E-1,-1.9797817E-1,-7.572187E-1,-1.1293392E0,1.5764796E0,1.2699357E0,1.4254076E0,1.1431751E0,1.2389991E0,9.993312E-1,1.0377448E0,8.6978036E-1,7.511196E-2,1.0346759E-1,1.0682163E-1,1.3619401E0,1.4077482E0,1.0163344E0,1.3224947E0,1.160732E0,1.3074172E0,7.224243E-1,1.2936099E0,9.104668E-1,1.025642E0,7.76118E-1,7.6392967E-1,4.4231844E-1,1.0476698E-1,1.2586484E0,1.154318E0,8.0645907E-1,9.035205E-1,1.1609675E0,1.3987107E0,1.0366845E0,1.2442626E-1,5.97095E-1,7.552045E-1,4.2252362E-1,-1.9574794E-1,-8.883297E-1,6.3517153E-1,-1.05103485E-1,1.8421325E-1,-4.4434562E-1,2.3528847E-1,-1.289963E-1,7.6951724E-1,-5.421537E-1,-8.310077E-1,-2.5844404E-1,-7.126778E-1,-3.7845623E-2,-8.343655E-1,-1.1203376E0,-3.0763015E-1,-1.2766962E0,-1.5324304E0,-1.1392525E0,-4.1975302E-1,-8.018993E-1,-2.980272E-1,1.327553E-1,-4.748996E-1,-9.696689E-1,-1.2345119E0,-7.0278424E-1,1.1259735E-1,8.824837E-2,7.9358146E-2,5.622251E-2,7.383306E-2,9.1646366E-2,7.579651E-2,6.551229E-2,7.248275E-2,9.38845E-2,5.7569496E-2,8.455405E-2,-4.0020365E-3,6.3692585E-2,6.309696E-2,4.658553E-2,7.601689E-2,9.1402516E-2,1.0549256E-1,8.338007E-2,7.448689E-2,3.616095E-2,8.188815E-2,5.445E-2,5.2045256E-2,7.1342E-2,1.0582265E-1,3.6806937E-2,4.250485E-2,8.717956E-2,9.063327E-2,5.781381E-2,2.4411272E-2,5.6018315E-2,7.086886E-2,3.3858772E-2,4.7569677E-2,5.4083774E-3,4.351946E-2,8.770885E-2,2.2156846E-2,5.8040496E-2,9.276488E-2,7.418483E-2,1.008572E-1,6.712742E-2,6.828455E-2,2.8623132E-2,1.6974738E-2,5.6450695E-2,3.12959E-2,7.361574E-2,7.396072E-2,9.917618E-2,4.4886738E-2,8.038497E-2,2.4268933E-2,3.763222E-3,4.0246803E-2,-9.419798E-3,5.6189246E-2,1.9118542E-2,3.463676E-2,8.8871885E-3,9.553084E-3,-2.7660424E-2,4.480079E-2,-6.45958E-2,7.253268E-2,-6.825265E-3,1.836608E-2,-1.4128094E-2,4.464241E-2,-7.2635757E-3,7.146097E-3,-3.112222E-2,4.8334055E-2,1.0135827E-2,-1.6495211E-2,1.1408694E-2,7.1322724E-2,2.4366077E-2,-6.225785E-3,-5.7404865E-2,-4.2393494E-2,-6.5703854E-2,1.6509553E-2,-2.8939785E-2,-4.5462433E-2,1.6349176E-2,5.871214E-3,-6.307387E-2,-2.8782932E-2,-5.3989474E-2,-5.4599572E-2,-7.600378E-2,7.96275E-3,-3.345839E-2,-8.610332E-2,-5.2607287E-2,-9.3976244E-2,-5.0161373E-2,-5.973272E-2,-8.9791246E-2,-2.6974197E-2,7.852023E-2,-4.0431015E-2,-6.1093133E-2,-2.5513029E-2,1.6286514E-3,1.9218309E-2,-9.199428E-3,-2.435043E-2,-6.391154E-2,-6.82342E-2,-2.5522342E-2,-6.476087E-2,-8.866491E-2,-6.0964677E-2,-3.3856584E-3],"categories":[0,0,2,3,4,6,8,10,11,12,1,11,12,1,10,11,12,1,10,11,12,1,11,12,0,1,2,3,4,5,6,10,11,12,0,1,4,6,9,10,11,12,1,2,3,4,5,6,7,8,1,2,3,4,5,6,7,0,4,5,6,8,10,11,12,0,3,5,6,8,9,10,11,12,0,1,2,4,5,7,8,2,3,4,5,6,1,11,12,1,11,12,1,2,3,7,8,0,5,10,11,12,0,1,2,3,4,5,7,8,10,11,12,0,1,2,3,6,8,9,11,12,0,1,4,7,8,10,11,12,1,12,1,2,4,5,6,7,1,8,1,4,5,0,1,2,6,9],"categories_nodes":[0,9,11,12,13,14,17,21,26,28,33,46,48,49,53,57,61,64,90,97,98,108,110,112,115,120,122],"categories_segments":[0,1,10,13,17,21,24,34,42,50,57,65,74,81,86,89,92,97,102,113,122,130,132,138,139,140,143],"categories_sizes":[1,9,3,4,4,3,10,8,8,7,8,9,7,5,3,3,5,5,11,9,8,2,6,1,1,3,5],"default_left":[1,0,0,0,0,0,0,0,0,1,0,1,1,1,1,0,0,1,0,0,0,1,0,0,0,0,1,0,1,0,0,0,0,1,0,0,0,0,0,0,0,0,0,0,0,0,1,0,1,1,0,0,0,1,0,0,0,1,0,0,0,1,0,0,1,0,0,0,0,0,0,0,0,0,0,0,0,0,0,0,0,0,0,0,0,0,0,0,0,0,1,0,0,0,0,0,0,1,1,0,0,0,0,0,0,0,0,0,1,0,1,0,1,0,0,1,0,0,0,0,1,0,1,0,0,0,0,0,0,0,0,0,0,0,0,0,0,0,0,0,0,0,0,0,0,0,0,0,0,0,0,0,0,0,0,0,0,0,0,0,0,0,0,0,0,0,0,0,0,0,0,0,0,0,0,0,0,0,0,0,0,0,0,0,0,0,0,0,0,0,0,0,0,0,0,0,0,0,0,0,0,0,0,0,0,0,0,0,0,0,0,0,0,0,0,0,0,0,0,0,0,0,0,0,0,0,0,0,0,0,0,0,0,0,0,0,0,0,0,0,0,0,0,0,0,0,0],"id":0,"left_children":[1,3,5,7,9,11,13,15,17,19,21,23,25,27,29,31,33,35,37,39,41,43,45,47,49,51,53,55,57,59,61,63,65,67,69,71,73,75,77,79,81,83,85,87,89,91,93,95,97,99,101,103,105,107,109,111,113,115,117,119,121,123,125,127,129,131,133,135,137,139,141,-1,-1,-1,143,145,147,149,151,153,155,157,159,161,163,165,167,-1,169,171,173,175,177,179,181,183,185,187,189,191,193,195,197,199,201,203,205,207,209,211,213,215,217,219,221,223,225,227,229,231,233,235,237,239,241,243,245,-1,-1,-1,-1,-1,-1,-1,-1,-1,-1,-1,-1,-1,-1,-1,-1,-1,-1,-1,-1,-1,-1,-1,-1,-1,-1,-1,-1,-1,-1,-1,-1,-1,-1,-1,-1,-1,-1,-1,-1,-1,-1,-1,-1,-1,-1,-1,-1,-1,-1,-1,-1,-1,-1,-1,-1,-1,-1,-1,-1,-1,-1,-1,-1,-1,-1,-1,-1,-1,-1,-1,-1,-1,-1,-1,-1,-1,-1,-1,-1,-1,-1,-1,-1,-1,-1,-1,-1,-1,-1,-1,-1,-1,-1,-1,-1,-1,-1,-1,-1,-1,-1,-1,-1,-1,-1,-1,-1,-1,-1,-1,-1,-1,-1,-1,-1,-1,-1,-1,-1],"loss_changes":[1.909967E4,2.1739648E2,3.1596792E3,5.8222656E1,8.737744E1,4.1891602E2,8.178916E2,3.6118164E1,1.5110596E1,1.1980225E1,1.5538086E1,1.2991846E2,2.1978741E2,3.0383496E2,1.7133911E2,6.3945312E0,9.273804E0,3.6568604E0,1.2673096E1,7.863037E0,1.0933716E1,1.3524536E1,1.21414795E1,7.103267E1,2.596595E1,1.3572864E2,7.269644E1,1.3479688E2,1.6010059E2,1.4338708E2,2.4891602E1,5.947693E0,7.524292E0,8.05835E0,8.531372E0,1.429779E0,5.7908325E0,6.586548E0,6.390503E0,1.2411652E1,8.848694E0,8.341187E0,1.2753998E1,4.402405E0,9.155426E0,1.2843872E1,7.1304016E0,4.2210773E1,2.2187134E1,2.8372639E1,1.1640091E1,4.8843216E1,6.9038185E1,5.170282E1,5.9179993E1,5.8276367E1,9.615283E1,1.3730411E2,3.9175293E1,6.8164856E1,5.5732155E1,2.1773209E1,1.5865631E1,2.004303E0,6.1868286E0,1.4886322E0,5.3519287E0,3.4821777E0,4.9645386E0,1.2820496E1,8.66864E0,0E0,0E0,0E0,2.9932556E0,6.6552734E0,4.1268883E0,4.5355225E0,3.829956E0,1.2100586E1,5.6450043E0,4.1992035E0,5.6446533E0,1.0287674E1,7.7668457E0,9.015472E0,8.153503E0,0E0,3.8364868E0,4.0265503E0,1.3817436E1,1.6232483E1,8.694641E0,4.206665E0,9.864471E0,2.667815E1,1.10699005E1,2.0953506E1,3.0200089E1,1.2414065E1,3.1296776E1,1.0464321E1,8.622926E0,2.3399775E1,4.4413086E1,3.666136E1,5.145649E1,8.742802E0,1.0462839E1,2.6913757E1,2.719756E1,4.853485E1,1.94979E1,4.2875E1,7.939746E1,2.688459E1,2.0655457E1,2.1831299E1,1.5586121E1,4.383612E1,2.4285217E1,5.189679E1,2.0566584E1,6.402279E0,1.7760056E1,1.0476196E1,1.39929085E1,0E0,0E0,0E0,0E0,0E0,0E0,0E0,0E0,0E0,0E0,0E0,0E0,0E0,0E0,0E0,0E0,0E0,0E0,0E0,0E0,0E0,0E0,0E0,0E0,0E0,0E0,0E0,0E0,0E0,0E0,0E0,0E0,0E0,0E0,0E0,0E0,0E0,0E0,0E0,0E0,0E0,0E0,0E0,0E0,0E0,0E0,0E0,0E0,0E0,0E0,0E0,0E0,0E0,0E0,0E0,0E0,0E0,0E0,0E0,0E0,0E0,0E0,0E0,0E0,0E0,0E0,0E0,0E0,0E0,0E0,0E0,0E0,0E0,0E0,0E0,0E0,0E0,0E0,0E0,0E0,0E0,0E0,0E0,0E0,0E0,0E0,0E0,0E0,0E0,0E0,0E0,0E0,0E0,0E0,0E0,0E0,0E0,0E0,0E0,0E0,0E0,0E0,0E0,0E0,0E0,0E0,0E0,0E0,0E0,0E0,0E0,0E0,0E0,0E0,0E0,0E0,0E0,0E0,0E0,0E0],"parents":[2147483647,0,0,1,1,2,2,3,3,4,4,5,5,6,6,7,7,8,8,9,9,10,10,11,11,12,12,13,13,14,14,15,15,16,16,17,17,18,18,19,19,20,20,21,21,22,22,23,23,24,24,25,25,26,26,27,27,28,28,29,29,30,30,31,31,32,32,33,33,34,34,35,35,36,36,37,37,38,38,39,39,40,40,41,41,42,42,43,43,44,44,45,45,46,46,47,47,48,48,49,49,50,50,51,51,52,52,53,53,54,54,55,55,56,56,57,57,58,58,59,59,60,60,61,61,62,62,63,63,64,64,65,65,66,66,67,67,68,68,69,69,70,70,74,74,75,75,76,76,77,77,78,78,79,79,80,80,81,81,82,82,83,83,84,84,85,85,86,86,88,88,89,89,90,90,91,91,92,92,93,93,94,94,95,95,96,96,97,97,98,98,99,99,100,100,101,101,102,102,103,103,104,104,105,105,106,106,107,107,108,108,109,109,110,110,111,111,112,112,113,113,114,114,115,115,116,116,117,117,118,118,119,119,120,120,121,121,122,122,123,123,124,124,125,125,126,126],"right_children":[2,4,6,8,10,12,14,16,18,20,22,24,26,28,30,32,34,36,38,40,42,44,46,48,50,52,54,56,58,60,62,64,66,68,70,72,74,76,78,80,82,84,86,88,90,92,94,96,98,100,102,104,106,108,110,112,114,116,118,120,122,124,126,128,130,132,134,136,138,140,142,-1,-1,-1,144,146,148,150,152,154,156,158,160,162,164,166,168,-1,170,172,174,176,178,180,182,184,186,188,190,192,194,196,198,200,202,204,206,208,210,212,214,216,218,220,222,224,226,228,230,232,234,236,238,240,242,244,246,-1,-1,-1,-1,-1,-1,-1,-1,-1,-1,-1,-1,-1,-1,-1,-1,-1,-1,-1,-1,-1,-1,-1,-1,-1,-1,-1,-1,-1,-1,-1,-1,-1,-1,-1,-1,-1,-1,-1,-1,-1,-1,-1,-1,-1,-1,-1,-1,-1,-1,-1,-1,-1,-1,-1,-1,-1,-1,-1,-1,-1,-1,-1,-1,-1,-1,-1,-1,-1,-1,-1,-1,-1,-1,-1,-1,-1,-1,-1,-1,-1,-1,-1,-1,-1,-1,-1,-1,-1,-1,-1,-1,-1,-1,-1,-1,-1,-1,-1,-1,-1,-1,-1,-1,-1,-1,-1,-1,-1,-1,-1,-1,-1,-1,-1,-1,-1,-1,-1,-1],"split_conditions":[NaN,3.9941627E-1,4.0500012E-1,5.29372E-1,4.3127418E-1,2.1641587E-1,4.1540587E-1,1.9253987E-1,1.1103311E-1,NaN,2.1591653E-1,NaN,NaN,NaN,NaN,4.310609E-1,3.623442E-1,NaN,1.503276E-1,5.348139E-1,6.4617807E-1,NaN,4.7764626E-1,5.1651484E-1,4.6053153E-1,3.1482932E-1,NaN,2.3990874E-1,NaN,5.339382E-1,3.362267E-1,3.4185728E-1,1.9985927E-2,NaN,5.0723684E-1,5.6987035E-1,5.2310094E-2,6.7828846E-1,2.197366E-1,1.00773245E-1,5.4911244E-1,1.24858916E-1,3.5013592E-1,4.44564E-1,1.2097249E-1,6.2067866E-1,NaN,7.249091E-1,NaN,NaN,1.0475853E-1,1.9275552E-1,4.0502128E-1,NaN,5.5195963E-1,6.922853E-1,5.550508E-1,NaN,5.794889E-1,5.533352E-1,6.4968896E-1,NaN,4.3550536E-1,1.8070577E-1,NaN,1.8070577E-1,3.5330513E-1,3.362267E-1,8.255869E-1,1.9727968E-1,2.6447767E-1,7.511196E-2,1.0346759E-1,1.0682163E-1,5.1876456E-1,5.46952E-2,2.1000926E-1,6.8797386E-1,1.4843953E-1,2.661147E-1,7.6722777E-1,2.609855E-1,2.9283622E-2,6.405282E-1,7.5596815E-1,3.3386147E-1,7.99743E-1,1.0476698E-1,2.315607E-2,5.809256E-2,NaN,2.4253196E-1,3.86025E-2,5.186984E-1,4.9245074E-1,3.5399532E-1,6.0424227E-1,NaN,NaN,1.03051625E-1,1.8577579E-1,5.567361E-1,6.386974E-2,2.982029E-1,2.1591653E-1,1.7759018E-1,5.9399146E-1,4.4160345E-1,NaN,5.703375E-1,NaN,7.802583E-1,NaN,1.8332244E-1,2.581824E-1,NaN,5.3378046E-1,7.2917086E-1,2.5378892E-1,6.745351E-1,NaN,4.0911844E-1,NaN,7.133501E-1,5.0912327E-1,5.2403396E-1,5.11936E-1,1.1259735E-1,8.824837E-2,7.9358146E-2,5.622251E-2,7.383306E-2,9.1646366E-2,7.579651E-2,6.551229E-2,7.248275E-2,9.38845E-2,5.7569496E-2,8.455405E-2,-4.0020365E-3,6.3692585E-2,6.309696E-2,4.658553E-2,7.601689E-2,9.1402516E-2,1.0549256E-1,8.338007E-2,7.448689E-2,3.616095E-2,8.188815E-2,5.445E-2,5.2045256E-2,7.1342E-2,1.0582265E-1,3.6806937E-2,4.250485E-2,8.717956E-2,9.063327E-2,5.781381E-2,2.4411272E-2,5.6018315E-2,7.086886E-2,3.3858772E-2,4.7569677E-2,5.4083774E-3,4.351946E-2,8.770885E-2,2.2156846E-2,5.8040496E-2,9.276488E-2,7.418483E-2,1.008572E-1,6.712742E-2,6.828455E-2,2.8623132E-2,1.6974738E-2,5.6450695E-2,3.12959E-2,7.361574E-2,7.396072E-2,9.917618E-2,4.4886738E-2,8.038497E-2,2.4268933E-2,3.763222E-3,4.0246803E-2,-9.419798E-3,5.6189246E-2,1.9118542E-2,3.463676E-2,8.8871885E-3,9.553084E-3,-2.7660424E-2,4.480079E-2,-6.45958E-2,7.253268E-2,-6.825265E-3,1.836608E-2,-1.4128094E-2,4.464241E-2,-7.2635757E-3,7.146097E-3,-3.112222E-2,4.8334055E-2,1.0135827E-2,-1.6495211E-2,1.1408694E-2,7.1322724E-2,2.4366077E-2,-6.225785E-3,-5.7404865E-2,-4.2393494E-2,-6.5703854E-2,1.6509553E-2,-2.8939785E-2,-4.5462433E-2,1.6349176E-2,5.871214E-3,-6.307387E-2,-2.8782932E-2,-5.3989474E-2,-5.4599572E-2,-7.600378E-2,7.96275E-3,-3.345839E-2,-8.610332E-2,-5.2607287E-2,-9.3976244E-2,-5.0161373E-2,-5.973272E-2,-8.9791246E-2,-2.6974197E-2,7.852023E-2,-4.0431015E-2,-6.1093133E-2,-2.5513029E-2,1.6286514E-3,1.9218309E-2,-9.199428E-3,-2.435043E-2,-6.391154E-2,-6.82342E-2,-2.5522342E-2,-6.476087E-2,-8.866491E-2,-6.0964677E-2,-3.3856584E-3],"split_indices":[8,2,2,1,1,2,1,2,0,6,4,6,6,6,6,4,4,6,2,2,2,6,3,1,1,1,7,4,7,1,4,0,2,6,0,1,2,0,4,4,2,4,0,1,4,1,6,3,7,7,3,0,0,6,1,3,2,6,3,2,1,7,3,1,6,1,0,4,3,2,2,0,0,0,3,4,3,0,0,1,3,1,3,0,0,0,2,0,4,0,6,4,3,1,2,4,0,6,6,2,4,4,2,2,4,4,0,4,6,4,7,0,7,0,0,7,3,0,1,3,7,3,7,2,3,1,1,0,0,0,0,0,0,0,0,0,0,0,0,0,0,0,0,0,0,0,0,0,0,0,0,0,0,0,0,0,0,0,0,0,0,0,0,0,0,0,0,0,0,0,0,0,0,0,0,0,0,0,0,0,0,0,0,0,0,0,0,0,0,0,0,0,0,0,0,0,0,0,0,0,0,0,0,0,0,0,0,0,0,0,0,0,0,0,0,0,0,0,0,0,0,0,0,0,0,0,0,0,0,0,0,0,0,0,0,0,0,0,0,0,0,0,0,0,0,0,0],"split_type":[1,0,0,0,0,0,0,0,0,1,0,1,1,1,1,0,0,1,0,0,0,1,0,0,0,0,1,0,1,0,0,0,0,1,0,0,0,0,0,0,0,0,0,0,0,0,1,0,1,1,0,0,0,1,0,0,0,1,0,0,0,1,0,0,1,0,0,0,0,0,0,0,0,0,0,0,0,0,0,0,0,0,0,0,0,0,0,0,0,0,1,0,0,0,0,0,0,1,1,0,0,0,0,0,0,0,0,0,1,0,1,0,1,0,0,1,0,0,0,0,1,0,1,0,0,0,0,0,0,0,0,0,0,0,0,0,0,0,0,0,0,0,0,0,0,0,0,0,0,0,0,0,0,0,0,0,0,0,0,0,0,0,0,0,0,0,0,0,0,0,0,0,0,0,0,0,0,0,0,0,0,0,0,0,0,0,0,0,0,0,0,0,0,0,0,0,0,0,0,0,0,0,0,0,0,0,0,0,0,0,0,0,0,0,0,0,0,0,0,0,0,0,0,0,0,0,0,0,0,0,0,0,0,0,0,0,0,0,0,0,0,0,0,0,0,0,0],"sum_hessian":[3.2038756E4,1.124726E4,2.0791496E4,5.814753E3,5.432507E3,7.7507563E3,1.3040739E4,3.4688533E3,2.3458994E3,3.1918672E3,2.2406396E3,3.2147932E3,4.5359634E3,8.747959E3,4.2927803E3,1.5493417E3,1.9195117E3,3.867816E2,1.9591178E3,1.311637E3,1.8802302E3,8.3725146E2,1.4033881E3,2.7846514E3,4.3014188E2,3.3629944E3,1.1729689E3,6.2327456E3,2.5152134E3,3.562793E3,7.299871E2,5.57865E2,9.914767E2,5.9477734E2,1.3247344E3,1.1137235E2,2.7540924E2,7.663651E2,1.1927527E3,4.5657053E2,8.550664E2,1.3609822E3,5.1924805E2,5.0778055E2,3.2947092E2,1.1702798E3,2.3310834E2,1.7702397E3,1.0144116E3,2.4106065E2,1.8908122E2,1.2694364E3,2.093558E3,1.2002493E2,1.052944E3,1.4321301E3,4.800615E3,6.0516785E2,1.9100457E3,1.8795144E3,1.6832786E3,3.6768405E2,3.6230307E2,8.087017E1,4.769948E2,1.13547676E2,8.7792896E2,3.117415E2,2.8303583E2,8.025177E2,5.222167E2,1.0845243E1,1.00527115E2,4.778033E1,2.276289E2,7.163218E2,5.0043312E1,3.9296988E2,7.9978284E2,4.0772747E1,4.157978E2,6.828791E1,7.867785E2,1.5725873E2,1.2037234E3,3.0598172E2,2.1326631E2,2.3211052E1,4.845695E2,1.9774792E2,1.3172299E2,9.149474E2,2.5533237E2,1.1349356E2,1.1961477E2,1.5548241E3,2.1541566E2,2.78933E2,7.3547864E2,1.3380847E2,1.0725218E2,2.433226E1,1.6474896E2,1.3833662E2,1.1310999E3,9.6400574E2,1.1295522E3,6.0313877E1,5.9711052E1,8.201257E2,2.3281824E2,1.2894224E3,1.4270784E2,2.0945718E3,2.7060437E3,2.490888E2,3.5607904E2,1.6033583E3,3.0668726E2,9.9340717E2,8.861073E2,1.2927633E3,3.905153E2,1.5830847E2,2.0937558E2,2.902338E2,7.2069275E1,2.3265165E1,5.7605007E1,4.254515E2,5.1543312E1,3.4893955E1,7.865372E1,3.1445795E2,5.63471E2,2.7557697E2,3.616452E1,2.5280423E2,3.0231617E1,1.0074678E1,7.92443E2,1.9129446E2,3.309222E2,1.3330525E2,9.432364E1,5.92338E1,6.57088E2,3.278573E1,1.7257582E1,3.6642117E2,2.6548714E1,4.491452E1,7.5486835E2,2.4819279E1,1.5953469E1,4.0464844E2,1.1149357E1,4.22392E1,2.6048714E1,2.2669922E1,7.641086E2,1.1963534E2,3.762339E1,1.1868782E3,1.6845243E1,2.8739948E2,1.858226E1,1.8616348E2,2.7102825E1,5.1834442E1,4.3273505E2,1.5724034E1,1.820239E2,6.676735E1,6.495565E1,4.081928E1,8.741281E2,2.0365808E1,2.3496657E2,6.582146E1,4.7672104E1,5.9759766E1,5.9855007E1,2.8527606E2,1.269548E3,1.9787454E2,1.754113E1,1.9984857E2,7.908444E1,4.7636707E2,2.5911154E2,5.6556293E1,7.725218E1,1.0487018E1,9.676517E1,1.4007583E1,1.0324678E1,3.9015163E1,1.257338E2,4.9272747E1,8.906388E1,1.2443727E2,1.00666254E3,1.0337017E2,8.6063556E2,7.7836926E2,3.51183E2,2.8265165E1,3.2048714E1,2.8919922E1,3.079113E1,5.4210077E2,2.7802493E2,6.784743E1,1.6497081E2,1.2413325E3,4.8089844E1,1.2568727E2,1.7020565E1,2.8916348E2,1.8054083E3,1.0341019E3,1.6719418E3,8.8942665E1,1.6014613E2,2.620433E2,9.403573E1,1.5592426E3,4.4115807E1,2.1287558E2,9.38117E1,9.7884546E2,1.4561695E1,5.385672E2,3.475401E2,9.3739197E2,3.553713E2,2.3725333E2,1.5326195E2,1.4103792E2,1.7270565E1,1.6238097E2,4.69946E1,1.6965154E2,1.2058226E2,4.8811695E1,2.3257582E1],"tree_param":{"num_deleted":"0","num_feature":"9","num_nodes":"247","size_leaf_vector":"0"}},{"base_weights":[1.0727345E-3,7.480957E-1,-1.0314314E0,8.7501955E-1,-6.081351E-2,-6.0565484E-1,-1.2318039E0,9.80671E-1,6.320787E-1,3.0270746E-1,-2.0345587E-1,-2.996394E-1,-7.810641E-1,-1.3524518E0,-8.709936E-1,8.9920306E-1,1.1664017E0,8.51916E-1,5.077871E-1,7.0979863E-1,1.4795224E-1,-3.0815002E-1,9.7259715E-2,-4.248988E-1,-4.3193888E-2,-8.9958876E-1,-5.5830735E-1,-1.1078221E0,-1.4184432E0,-9.3232286E-1,-5.6676507E-1,1.0257164E0,8.034033E-1,1.2744051E0,1.0849544E0,9.657813E-1,7.6311255E-1,4.0814364E-1,6.401817E-1,3.0809915E-1,9.7154933E-1,4.9763882E-1,2.3991745E-2,-4.125313E-1,-1.3089241E-1,7.897718E-1,5.8755595E-2,-2.3058283E-1,-6.113114E-1,5.082792E-1,-8.754993E-2,-3.720406E-1,-9.386043E-1,-6.465664E-1,-2.8890824E-1,-9.2967266E-1,-1.2364671E0,-1.2866812E0,-1.5108603E0,-1.0147585E0,-6.32124E-1,1.7497247E-1,-6.3588506E-1,1.1780539E0,9.8853034E-1,7.6270884E-1,9.1813576E-1,1.4121238E0,1.2322191E0,9.1700053E-1,1.126029E0,1.0095757E0,6.262883E-1,9.9677235E-1,7.2022605E-1,3.7377575E-1,7.668801E-1,5.95826E-1,1.0293542E0,7.206967E-2,1.27648E-1,8.2116234E-1,1.4061626E0,-3.0517317E-2,5.863227E-1,3.2876503E-1,-1.2600228E-1,-5.8887064E-1,-2.6961076E-1,-6.2351886E-2,-9.7795375E-2,8.1348784E-2,2.1086618E-2,2.2069928E-1,-1.1371091E-1,-1.7591487E-1,-1.1295784E0,-2.196575E-1,-7.1292543E-1,2.6562833E-3,8.1914777E-1,5.82555E-2,-3.3121163E-1,5.0132006E-2,-4.945664E-1,1.3399166E-1,-9.544703E-1,-6.9225115E-1,-2.1132314E-1,-6.858232E-1,-8.76571E-2,-6.224818E-1,-1.0860432E0,-1.0328914E0,-1.3607417E0,-1.0237845E0,-1.3348356E0,-1.2678533E0,-1.5948329E0,-7.3976076E-1,-1.1159587E0,-4.7057927E-1,-8.755735E-1,-4.1617278E-2,5.754648E-1,-5.037109E-1,-9.4423854E-1,9.889767E-2,7.055522E-2,7.246634E-2,5.8162685E-2,4.466095E-2,5.5533275E-2,5.3222045E-2,7.346274E-2,8.695556E-2,5.3183794E-2,8.208017E-2,7.144738E-2,6.18899E-2,3.6901806E-2,8.386955E-2,6.716761E-2,6.928507E-2,5.4782283E-2,4.8281074E-2,-4.2704567E-2,1.8465508E-3,6.54423E-2,4.118324E-2,6.228434E-2,2.9556368E-2,1.7823698E-2,3.9319225E-2,8.546429E-2,3.0791253E-2,4.4808857E-2,4.4271614E-2,7.270806E-2,-4.991674E-3,5.248221E-2,6.424876E-2,3.9254844E-2,6.1200507E-2,1.0439033E-1,7.996243E-2,3.1663895E-2,3.101982E-2,-1.0497596E-2,1.680784E-2,-1.1745462E-2,-2.9987566E-2,-6.1086636E-2,-1.0411156E-2,-3.772098E-2,-3.5580402E-4,-1.9904437E-2,2.2617294E-2,-5.6110504E-3,1.2041993E-2,-1.7415129E-2,-1.6838184E-2,9.5273275E-3,-9.12439E-2,-2.1073295E-2,-5.221457E-3,-6.6466376E-2,-2.826594E-2,-5.6597658E-2,7.2066605E-2,1.8037135E-2,2.7474225E-2,-4.4658096E-3,-3.171639E-2,2.5259266E-3,-3.8949687E-2,1.4535266E-2,-4.8089217E-2,5.5813912E-2,-4.970968E-2,-6.5245084E-2,-4.4447605E-2,-5.324156E-3,-8.09867E-2,-7.61761E-4,-5.2640762E-2,1.5425501E-2,1.215898E-2,-2.5947217E-2,-1.5530288E-2,-6.4330645E-2,-2.0895496E-2,-6.904402E-2,-5.5428248E-2,-8.600818E-2,-6.921037E-2,-8.953524E-2,-4.73456E-2,-7.701518E-2,-1.0329757E-1,-7.95642E-2,-7.289569E-2,-9.576925E-2,-1.0237066E-1,-8.996705E-2,-2.2596382E-2,-5.1550314E-2,-6.2373832E-2,-7.633368E-2,-3.341066E-2,2.8865112E-3,-7.8911215E-2,-2.9737383E-2,3.1332541E-3,6.352038E-2,-3.823032E-2,-9.462192E-3,-9.485096E-2,-4.625039E-2],"categories":[0,1,2,3,4,5,6,7,10,11,12,0,1,2,4,5,7,9,11,5,0,1,2,3,4,5,6,2,4,8,9,12,1,2,4,6,7,8,10,11,3,5,6,9,11,0,1,2,3,4,5,5,7,8,0,1,2,3,4,6,8,10,11,12,0,1,4,9,10,11,12,0,1,3,4,7,8,9,11,12,0,1,5,10,0,1,3,4,6,8,9,11,12,0,1,2,3,6,6,10,5,1,2,3,4,10,11,12,0,1,2,4,5,7,8,0,1,2,3,4,5,1,4,5,9,10,12,1,3,5,6,6,8,1,3,4,6,8,9,1,3,4,7,9,3,4,5],"categories_nodes":[20,46,47,49,50,55,60,61,62,68,69,71,72,75,80,88,97,98,101,105,110,111,113,114,115,120],"categories_segments":[0,11,19,20,27,32,40,45,51,54,64,71,80,84,93,98,100,101,108,115,121,127,131,133,139,144],"categories_sizes":[11,8,1,7,5,8,5,6,3,10,7,9,4,9,5,2,1,7,7,6,6,4,2,6,5,3],"default_left":[0,0,0,0,0,0,0,0,0,0,0,0,0,0,0,0,0,0,0,0,1,0,0,0,0,0,0,0,0,0,0,0,0,0,0,0,0,0,0,0,0,0,0,0,0,0,1,1,0,1,1,0,0,0,0,1,0,0,0,0,1,1,1,0,0,0,0,0,1,1,0,1,1,0,0,1,0,0,0,0,1,0,0,0,0,0,0,0,1,0,0,0,0,0,0,0,0,1,1,0,0,1,0,0,0,1,0,0,0,0,1,1,0,1,1,1,0,0,0,0,1,0,0,0,0,0,0,0,0,0,0,0,0,0,0,0,0,0,0,0,0,0,0,0,0,0,0,0,0,0,0,0,0,0,0,0,0,0,0,0,0,0,0,0,0,0,0,0,0,0,0,0,0,0,0,0,0,0,0,0,0,0,0,0,0,0,0,0,0,0,0,0,0,0,0,0,0,0,0,0,0,0,0,0,0,0,0,0,0,0,0,0,0,0,0,0,0,0,0,0,0,0,0,0,0,0,0,0,0,0,0,0,0,0,0,0,0,0,0],"id":1,"left_children":[1,3,5,7,9,11,13,15,17,19,21,23,25,27,29,31,33,35,37,39,41,43,45,47,49,51,53,55,57,59,61,63,65,67,69,71,73,75,77,79,81,83,85,87,89,91,93,95,97,99,101,103,105,107,109,111,113,115,117,119,121,123,125,127,129,131,133,135,137,139,141,143,145,147,149,151,153,155,157,-1,159,161,163,-1,165,167,169,171,173,-1,175,-1,-1,177,179,181,183,185,187,-1,189,191,193,-1,195,197,199,201,203,205,207,209,211,213,215,217,219,221,223,225,227,229,231,-1,233,235,237,-1,-1,-1,-1,-1,-1,-1,-1,-1,-1,-1,-1,-1,-1,-1,-1,-1,-1,-1,-1,-1,-1,-1,-1,-1,-1,-1,-1,-1,-1,-1,-1,-1,-1,-1,-1,-1,-1,-1,-1,-1,-1,-1,-1,-1,-1,-1,-1,-1,-1,-1,-1,-1,-1,-1,-1,-1,-1,-1,-1,-1,-1,-1,-1,-1,-1,-1,-1,-1,-1,-1,-1,-1,-1,-1,-1,-1,-1,-1,-1,-1,-1,-1,-1,-1,-1,-1,-1,-1,-1,-1,-1,-1,-1,-1,-1,-1,-1,-1,-1,-1,-1,-1,-1,-1,-1,-1,-1,-1,-1,-1,-1],"loss_changes":[2.4773287E4,1.9134883E3,1.149916E3,4.131377E2,1.3103702E2,2.3141467E2,3.9863477E2,1.694375E2,1.3315173E2,4.4688545E1,5.7197556E1,5.043097E1,7.2118774E1,1.1037988E2,4.257849E1,9.4214355E1,2.9611816E1,1.7480103E1,4.095636E1,2.0336494E1,2.228006E1,2.4823853E1,1.2334087E1,3.809543E1,1.25620775E1,3.6577026E1,2.248285E1,3.3024414E1,6.52832E1,4.6984497E1,1.988469E1,1.8599854E1,2.0404053E1,7.9833984E0,1.3050049E1,1.1144592E1,9.593262E0,2.1738434E1,2.27901E1,1.2102971E1,7.27227E0,1.1994469E1,1.747973E1,2.1188232E1,1.4666734E1,5.6435175E0,1.2422761E1,2.5193584E1,2.1254715E1,5.35052E0,1.7049686E1,1.8133675E1,2.8503052E1,1.4092926E1,1.869037E1,2.9111511E1,2.0939087E1,2.7759033E1,6.425342E1,4.1354248E1,1.59591675E1,1.129871E1,1.4121094E1,3.2149658E0,1.5252686E1,1.23654785E1,1.297229E1,3.9448242E0,6.7214355E0,1.2124115E1,6.2336426E0,9.222107E0,2.0266289E1,1.2235886E1,1.0009033E1,1.4617218E1,1.133773E1,1.4893127E1,6.592621E0,0E0,1.0180688E1,3.3195038E0,3.201702E0,0E0,5.399292E0,1.1704347E1,6.9943714E0,1.4588226E1,1.602253E1,0E0,1.0181963E1,0E0,0E0,1.1050356E1,1.1682985E1,1.6652653E1,8.335339E0,1.2828024E1,2.3050156E1,0E0,4.0904884E0,1.567964E1,1.2992245E1,0E0,1.2356504E1,1.7719791E1,2.6597168E1,1.6271881E1,1.5105895E1,1.3770294E1,1.5466564E1,3.3136246E1,1.6057892E1,1.41684265E1,1.2953308E1,2.036493E1,1.3825195E1,1.5786621E1,2.3996582E1,1.6301773E1,1.3130005E1,1.0558151E1,2.6620232E1,0E0,5.382766E0,1.0854317E1,1.1374367E1,0E0,0E0,0E0,0E0,0E0,0E0,0E0,0E0,0E0,0E0,0E0,0E0,0E0,0E0,0E0,0E0,0E0,0E0,0E0,0E0,0E0,0E0,0E0,0E0,0E0,0E0,0E0,0E0,0E0,0E0,0E0,0E0,0E0,0E0,0E0,0E0,0E0,0E0,0E0,0E0,0E0,0E0,0E0,0E0,0E0,0E0,0E0,0E0,0E0,0E0,0E0,0E0,0E0,0E0,0E0,0E0,0E0,0E0,0E0,0E0,0E0,0E0,0E0,0E0,0E0,0E0,0E0,0E0,0E0,0E0,0E0,0E0,0E0,0E0,0E0,0E0,0E0,0E0,0E0,0E0,0E0,0E0,0E0,0E0,0E0,0E0,0E0,0E0,0E0,0E0,0E0,0E0,0E0,0E0,0E0,0E0,0E0,0E0,0E0,0E0,0E0,0E0,0E0,0E0,0E0,0E0,0E0,0E0,0E0,0E0,0E0,0E0],"parents":[2147483647,0,0,1,1,2,2,3,3,4,4,5,5,6,6,7,7,8,8,9,9,10,10,11,11,12,12,13,13,14,14,15,15,16,16,17,17,18,18,19,19,20,20,21,21,22,22,23,23,24,24,25,25,26,26,27,27,28,28,29,29,30,30,31,31,32,32,33,33,34,34,35,35,36,36,37,37,38,38,39,39,40,40,41,41,42,42,43,43,44,44,45,45,46,46,47,47,48,48,49,49,50,50,51,51,52,52,53,53,54,54,55,55,56,56,57,57,58,58,59,59,60,60,61,61,62,62,63,63,64,64,65,65,66,66,67,67,68,68,69,69,70,70,71,71,72,72,73,73,74,74,75,75,76,76,77,77,78,78,80,80,81,81,82,82,84,84,85,85,86,86,87,87,88,88,90,90,93,93,94,94,95,95,96,96,97,97,98,98,100,100,101,101,102,102,104,104,105,105,106,106,107,107,108,108,109,109,110,110,111,111,112,112,113,113,114,114,115,115,116,116,117,117,118,118,119,119,120,120,121,121,122,122,124,124,125,125,126,126],"right_children":[2,4,6,8,10,12,14,16,18,20,22,24,26,28,30,32,34,36,38,40,42,44,46,48,50,52,54,56,58,60,62,64,66,68,70,72,74,76,78,80,82,84,86,88,90,92,94,96,98,100,102,104,106,108,110,112,114,116,118,120,122,124,126,128,130,132,134,136,138,140,142,144,146,148,150,152,154,156,158,-1,160,162,164,-1,166,168,170,172,174,-1,176,-1,-1,178,180,182,184,186,188,-1,190,192,194,-1,196,198,200,202,204,206,208,210,212,214,216,218,220,222,224,226,228,230,232,-1,234,236,238,-1,-1,-1,-1,-1,-1,-1,-1,-1,-1,-1,-1,-1,-1,-1,-1,-1,-1,-1,-1,-1,-1,-1,-1,-1,-1,-1,-1,-1,-1,-1,-1,-1,-1,-1,-1,-1,-1,-1,-1,-1,-1,-1,-1,-1,-1,-1,-1,-1,-1,-1,-1,-1,-1,-1,-1,-1,-1,-1,-1,-1,-1,-1,-1,-1,-1,-1,-1,-1,-1,-1,-1,-1,-1,-1,-1,-1,-1,-1,-1,-1,-1,-1,-1,-1,-1,-1,-1,-1,-1,-1,-1,-1,-1,-1,-1,-1,-1,-1,-1,-1,-1,-1,-1,-1,-1,-1,-1,-1,-1,-1,-1],"split_conditions":[3E0,2E0,4.072694E-1,1E0,2.797695E-1,2.1641587E-1,4.4920653E-1,5.41312E-1,3.170122E-1,8.000487E-2,5.186984E-1,5.1651484E-1,4.7889265E-1,2.3675492E-1,6.243311E-1,3.8271224E-1,2.6447767E-1,1.4503711E-1,4.122762E-1,3.9795884E-1,NaN,4.9398342E-1,5.2403396E-1,1.3042304E-1,1.00773245E-1,1.6212085E-1,6.452894E-1,6.155637E-1,5.5084836E-1,4.6253073E-1,3.86025E-2,2.581748E-1,4.2542574E-1,5.7973877E-2,1.2203997E-1,7.03077E-1,1.6266774E-1,6.745351E-1,6.952332E-1,1.9275552E-1,5.9399146E-1,1.03051625E-1,3.3386147E-1,2.661147E-1,2.3267351E-2,2.6384538E-1,NaN,NaN,3.7117344E-1,NaN,NaN,3.469394E-1,4.1043557E-2,6.136743E-1,1.6266774E-1,NaN,9.681928E-2,2.0553811E-1,1.9026962E-1,5.026633E-1,NaN,NaN,NaN,6.53063E-2,4.612572E-2,6.2432796E-1,5.725483E-1,6.8797386E-1,NaN,NaN,2.7107516E-2,NaN,NaN,1.7759018E-1,3.0122703E-1,NaN,5.975E-1,4.1207507E-1,3.9941627E-1,7.206967E-2,NaN,3.0064315E-1,3.277588E-1,-3.0517317E-2,4.9569942E-2,6.4988273E-1,1.5854079E-1,4.2015857E-1,NaN,-6.2351886E-2,6.3195E-1,8.1348784E-2,2.1086618E-2,5.3000516E-1,2.2014622E-1,6.2801933E-1,6.659893E-1,NaN,NaN,2.6562833E-3,1.6876818E-1,NaN,5.3621745E-1,5.0132006E-2,7.802583E-1,NaN,3.2554194E-1,6.5012354E-1,2.3717389E-1,3.6968556E-1,NaN,NaN,1.9321896E-1,NaN,NaN,NaN,2.3267351E-2,7.702625E-1,2.1474847E-1,2.785147E-1,NaN,1.4E1,5.2273095E-1,-4.1617278E-2,1.1179822E-2,5.9342694E-1,9.681928E-2,9.889767E-2,7.055522E-2,7.246634E-2,5.8162685E-2,4.466095E-2,5.5533275E-2,5.3222045E-2,7.346274E-2,8.695556E-2,5.3183794E-2,8.208017E-2,7.144738E-2,6.18899E-2,3.6901806E-2,8.386955E-2,6.716761E-2,6.928507E-2,5.4782283E-2,4.8281074E-2,-4.2704567E-2,1.8465508E-3,6.54423E-2,4.118324E-2,6.228434E-2,2.9556368E-2,1.7823698E-2,3.9319225E-2,8.546429E-2,3.0791253E-2,4.4808857E-2,4.4271614E-2,7.270806E-2,-4.991674E-3,5.248221E-2,6.424876E-2,3.9254844E-2,6.1200507E-2,1.0439033E-1,7.996243E-2,3.1663895E-2,3.101982E-2,-1.0497596E-2,1.680784E-2,-1.1745462E-2,-2.9987566E-2,-6.1086636E-2,-1.0411156E-2,-3.772098E-2,-3.5580402E-4,-1.9904437E-2,2.2617294E-2,-5.6110504E-3,1.2041993E-2,-1.7415129E-2,-1.6838184E-2,9.5273275E-3,-9.12439E-2,-2.1073295E-2,-5.221457E-3,-6.6466376E-2,-2.826594E-2,-5.6597658E-2,7.2066605E-2,1.8037135E-2,2.7474225E-2,-4.4658096E-3,-3.171639E-2,2.5259266E-3,-3.8949687E-2,1.4535266E-2,-4.8089217E-2,5.5813912E-2,-4.970968E-2,-6.5245084E-2,-4.4447605E-2,-5.324156E-3,-8.09867E-2,-7.61761E-4,-5.2640762E-2,1.5425501E-2,1.215898E-2,-2.5947217E-2,-1.5530288E-2,-6.4330645E-2,-2.0895496E-2,-6.904402E-2,-5.5428248E-2,-8.600818E-2,-6.921037E-2,-8.953524E-2,-4.73456E-2,-7.701518E-2,-1.0329757E-1,-7.95642E-2,-7.289569E-2,-9.576925E-2,-1.0237066E-1,-8.996705E-2,-2.2596382E-2,-5.1550314E-2,-6.2373832E-2,-7.633368E-2,-3.341066E-2,2.8865112E-3,-7.8911215E-2,-2.9737383E-2,3.1332541E-3,6.352038E-2,-3.823032E-2,-9.462192E-3,-9.485096E-2,-4.625039E-2],"split_indices":[5,5,2,5,2,2,1,1,2,2,1,1,1,4,1,2,2,2,1,1,6,3,1,2,4,4,1,2,2,3,3,4,1,2,3,0,3,3,1,0,0,2,0,1,1,0,6,6,4,7,6,0,0,3,3,6,4,0,0,2,6,7,7,3,2,4,3,0,6,6,4,6,6,4,2,6,2,3,2,0,6,0,4,0,4,4,4,3,6,0,3,0,0,2,0,3,0,7,6,0,2,7,4,0,0,7,2,0,2,2,6,7,3,7,7,7,1,2,1,4,7,5,3,0,3,2,4,0,0,0,0,0,0,0,0,0,0,0,0,0,0,0,0,0,0,0,0,0,0,0,0,0,0,0,0,0,0,0,0,0,0,0,0,0,0,0,0,0,0,0,0,0,0,0,0,0,0,0,0,0,0,0,0,0,0,0,0,0,0,0,0,0,0,0,0,0,0,0,0,0,0,0,0,0,0,0,0,0,0,0,0,0,0,0,0,0,0,0,0,0,0,0,0,0,0,0,0,0,0,0,0,0,0,0,0,0,0,0,0],"split_type":[0,0,0,0,0,0,0,0,0,0,0,0,0,0,0,0,0,0,0,0,1,0,0,0,0,0,0,0,0,0,0,0,0,0,0,0,0,0,0,0,0,0,0,0,0,0,1,1,0,1,1,0,0,0,0,1,0,0,0,0,1,1,1,0,0,0,0,0,1,1,0,1,1,0,0,1,0,0,0,0,1,0,0,0,0,0,0,0,1,0,0,0,0,0,0,0,0,1,1,0,0,1,0,0,0,1,0,0,0,0,1,1,0,1,1,1,0,0,0,0,1,0,0,0,0,0,0,0,0,0,0,0,0,0,0,0,0,0,0,0,0,0,0,0,0,0,0,0,0,0,0,0,0,0,0,0,0,0,0,0,0,0,0,0,0,0,0,0,0,0,0,0,0,0,0,0,0,0,0,0,0,0,0,0,0,0,0,0,0,0,0,0,0,0,0,0,0,0,0,0,0,0,0,0,0,0,0,0,0,0,0,0,0,0,0,0,0,0,0,0,0,0,0,0,0,0,0,0,0,0,0,0,0,0,0,0,0,0,0],"sum_hessian":[3.2118676E4,1.8635771E4,1.3482904E4,1.6108456E4,2.5273162E3,4.3149775E3,9.167927E3,1.1225688E4,4.8827676E3,7.118524E2,1.8154637E3,1.5726023E3,2.7423755E3,6.870082E3,2.2978445E3,7.803873E3,3.4218157E3,1.7629257E3,3.1198418E3,1.9570648E2,5.1614594E2,1.3470809E3,4.683828E2,1.0560453E3,5.1655707E2,1.7893489E3,9.5302655E2,1.4602954E3,5.4097866E3,1.9117656E3,3.8607877E2,3.3618672E3,4.442006E3,1.4698508E3,1.9519648E3,7.713774E2,9.915483E2,1.7809813E3,1.3388604E3,7.75233E1,1.1818319E2,1.3466498E2,3.8148093E2,8.4714276E2,4.999381E2,2.43774E1,4.440054E2,5.175866E2,5.384587E2,3.8115776E1,4.7844125E2,1.23573265E2,1.6657755E3,7.172948E2,2.3573177E2,6.13073E2,8.4722235E2,2.231246E3,3.1785405E3,1.4993345E3,4.1243124E2,3.2680653E1,3.5339813E2,6.5840594E2,2.7034612E3,3.2803984E3,1.1616073E3,3.4332568E2,1.1265251E3,3.8463458E2,1.5673303E3,6.826896E2,8.8687836E1,1.5296117E2,8.385871E2,1.625819E3,1.551624E2,1.2023951E3,1.3646527E2,1.2951171E1,6.457213E1,8.8205505E1,2.9977686E1,1.0769467E1,1.23895515E2,1.26205055E2,2.5527588E2,3.7860352E2,4.6853928E2,1.7510933E1,4.824272E2,1.0590537E1,1.3786861E1,2.2952588E2,2.1447952E2,4.8815594E2,2.9430696E1,1.1132031E2,4.2713834E2,1.5537993E1,2.2577782E1,2.9888022E2,1.7956104E2,1.1287264E1,1.12286E2,2.4109375E1,1.6416661E3,6.487556E2,6.853918E1,7.897214E1,1.5675963E2,2.0726962E2,4.058034E2,3.2185492E2,5.2536743E2,3.4615765E2,1.8850884E3,8.170248E2,2.3615156E3,4.0391302E2,1.0954214E3,2.4844542E2,1.6398581E2,1.0210246E1,2.2470406E1,2.4785864E2,1.0553948E2,1.731343E1,6.410925E2,3.177834E2,2.3856777E3,2.8241472E3,4.5625116E2,1.0265624E3,1.350449E2,3.280829E2,1.5242814E1,3.3298068E2,7.9354443E2,2.8604694E2,9.858765E1,9.355915E1,1.4737711E3,2.9754865E2,3.851409E2,7.8722664E1,9.965165E0,1.2430104E1,1.4053107E2,7.429829E2,9.5604225E1,6.649545E2,9.6086444E2,1.3156557E2,2.3596836E1,7.502058E2,4.521893E2,5.031815E1,8.6147125E1,5.011967E1,1.4452456E1,3.6385117E1,5.1820385E1,1.3701137E1,1.6276548E1,9.539317E0,1.143562E2,9.268152E1,3.3523533E1,3.640094E1,2.1887494E2,3.1007062E2,6.853289E1,3.6756287E2,1.0097642E2,3.456852E2,1.3674199E2,1.546546E2,7.487128E1,7.629855E1,1.3818097E2,3.740149E2,1.14141045E2,1.966088E1,9.769817E0,9.685968E1,1.4460633E1,2.0299596E2,2.241424E2,1.2950786E1,9.626996E0,7.511128E1,2.2376895E2,1.1870882E2,6.0852215E1,9.3587425E1,1.869858E1,1.0962421E1,1.3146955E1,7.889701E2,8.526961E2,6.064098E2,4.23458E1,1.0105349E1,5.8433826E1,6.623663E1,1.27355E1,8.4629265E1,7.213037E1,1.13425125E2,9.3844505E1,2.7987339E1,3.7781604E2,2.4752765E2,7.4327286E1,1.85546E2,3.398214E2,1.7583621E2,1.7032146E2,9.876441E1,1.786324E3,6.796331E2,1.3739166E2,1.2534375E3,1.1080782E3,9.476221E1,3.0915082E2,6.8914343E2,4.0627798E2,2.150696E2,3.3375828E1,7.7338455E1,8.6647354E1,1.0876996E1,1.15934105E1,1.8081755E2,6.70411E1,2.340622E1,8.213326E1],"tree_param":{"num_deleted":"0","num_feature":"9","num_nodes":"239","size_leaf_vector":"0"}},{"base_weights":[1.9961132E-3,7.08118E-1,-9.6913594E-1,8.2423687E-1,-3.4226496E-2,-5.2153534E-1,-1.1483151E0,9.2317754E-1,5.936757E-1,1.7457137E-1,-2.1474549E-1,-2.6427704E-1,-6.765732E-1,-1.3035204E0,-8.888326E-1,1.0372187E0,8.086537E-1,7.337109E-1,4.1904995E-1,1.142348E-1,7.238723E-1,-2.991488E-1,7.7126436E-2,1.0738276E-1,-3.4220126E-1,-7.70896E-1,-3.0329832E-1,-1.1403236E0,-1.3843299E0,-9.9773E-1,-6.4914113E-1,9.785735E-1,1.1504306E0,7.095019E-1,9.4421464E-1,9.340596E-1,6.79347E-1,2.9209015E-1,5.273929E-1,5.7181627E-1,6.5154195E-2,8.660247E-1,2.7098683E-1,-3.206591E-1,6.283902E-1,3.51505E-2,4.9298678E-2,3.8038144E-1,-1.8632998E-1,-4.6037048E-1,-6.760682E-2,-8.3858013E-1,-4.678928E-1,-4.4794828E-1,2.4585469E-1,-9.0190405E-1,-1.1993649E0,-1.1690743E0,-1.4507767E0,-7.452007E-1,-1.0531871E0,-7.1450776E-1,3.3392105E-2,1.0479112E0,8.743842E-1,1.1193262E0,1.2946278E0,8.371852E-1,6.895828E-1,8.8544613E-1,1.0775983E0,1.0011356E0,6.719756E-1,5.6702054E-1,7.7371997E-1,-4.6785757E-1,3.2109183E-1,7.3248637E-1,4.5602253E-1,1.0393527E0,2.7298674E-1,-7.1546845E-2,1.9427085E-1,1.779623E-2,9.8290145E-1,1.4934004E-2,4.652952E-2,-2.9078916E-1,-7.4207014E-1,7.057211E-2,1.6119273E-2,-5.0636347E-2,2.6029062E-1,6.2933445E-2,2.7372858E-1,-1.3138158E0,2.8642675E-2,1.02354385E-1,-5.0173306E-1,1.9756699E-1,-3.3090016E-1,-6.3568294E-1,-9.433269E-1,-1.0405661E0,-3.7755919E-1,-2.2913656E-1,-6.8401515E-1,8.59984E-1,-2.9376522E-2,-5.335845E-1,-1.201298E0,-1.0298713E0,-1.2532792E0,-1.0464796E0,-1.2639426E0,-1.4775709E0,-1.1664575E0,-6.744388E-1,-1.2701648E0,-1.0892522E0,-5.3472227E-1,-8.198526E-1,-5.182375E-1,7.14849E-2,-1.5906018E-1,6.897713E-2,6.12014E-2,6.373482E-2,4.967748E-2,8.199029E-2,6.664086E-2,8.3177015E-2,5.8633223E-2,1.7812002E-2,5.2917395E-2,4.078747E-2,5.2824397E-2,5.176458E-2,6.493032E-2,6.828175E-2,5.553422E-2,5.8353752E-2,7.550153E-2,-2.9570073E-2,5.2265413E-2,5.379187E-2,3.2260604E-2,4.5972925E-2,9.455983E-2,-8.055636E-2,-6.8410654E-3,2.7368603E-2,1.0536601E-2,4.825016E-2,1.9624794E-2,3.0414503E-2,1.17167365E-2,7.205503E-2,3.3651255E-2,-5.908662E-2,2.983748E-2,1.33219E-2,-1.5454455E-2,2.1719463E-2,2.5410478E-3,4.5854975E-2,7.9799026E-2,2.4505831E-2,-2.0585073E-2,-2.3049552E-2,-3.0314487E-3,-8.7369375E-2,-1.796011E-2,-1.33329695E-2,1.8125338E-2,-4.2476468E-2,2.4281887E-2,4.0136263E-2,2.486199E-3,-6.189654E-2,-9.8230764E-2,-7.098552E-3,4.4475272E-2,-4.809831E-2,1.9337302E-2,-7.8173755E-3,-3.4176163E-2,2.3595918E-2,-4.332175E-3,-1.0699655E-2,-6.513454E-2,-5.2253548E-2,-2.7176516E-2,-3.734547E-2,-5.9765507E-2,-3.7545405E-2,-9.6495114E-2,-2.9388733E-2,1.6748097E-2,-1.0777228E-2,-7.564302E-2,-5.845685E-2,-2.8601062E-2,7.471957E-2,1.2537789E-2,-4.0609755E-2,1.6469127E-2,2.0109333E-2,-4.4788014E-2,-2.9374136E-2,-7.768066E-2,-5.6858316E-2,-7.886541E-2,-8.719809E-2,-7.355232E-2,-5.0888732E-2,-7.569437E-2,-6.3216075E-2,-8.271451E-2,-9.271089E-2,-8.3909966E-2,-5.8459688E-2,-8.702477E-2,-3.1346004E-2,-5.8702573E-2,-3.900089E-2,-8.61732E-2,-5.1906705E-2,-6.9958754E-2,6.838684E-3,-3.9781097E-2,-4.0823344E-2,-6.058765E-2,-3.5109486E-2,5.55214E-3,-3.7574172E-2,1.1301887E-2],"categories":[0,1,2,3,7,11,12,0,1,2,3,4,5,6,12,0,1,2,3,4,6,7,8,9,10,11,12,0,1,3,8,11,12,0,1,2,4,6,7,8,9,11,12,1,2,4,8,2,3,4,7,9,10,11,12,1,4,5,10,11,12,0,1,2,3,4,8,9,10,11,12,2,3,4,7,8,10,11,1,2,3,5,6,7,0,1,2,3,4,5,6,7,8,9,11,12,0,1,3,4,7,9,11,12,0,1,4,10,11,12,4,5,6,7,10,11,0,1,2,4,5,7,8,11,12,5,8,0,1,3,4,5,6,7,8,9,1,4,7,9,11,12,1,2,3,4,7,9,2,3,4,6,10,2,3,4,6,10,12],"categories_nodes":[20,23,33,35,39,50,51,53,54,55,56,62,76,77,81,82,100,109,113,116,117,121],"categories_segments":[0,7,15,27,33,43,47,55,61,71,78,84,96,104,110,116,125,127,136,142,148,153],"categories_sizes":[7,8,12,6,10,4,8,6,10,7,6,12,8,6,6,9,2,9,6,6,5,6],"default_left":[0,0,0,0,0,0,0,0,0,0,0,0,0,0,0,0,0,0,0,0,1,0,0,1,0,0,0,0,0,0,0,0,0,1,0,1,0,0,0,1,0,0,0,0,0,0,0,0,0,0,1,1,0,1,1,1,1,0,0,0,0,0,1,0,0,0,0,0,0,0,0,0,0,0,0,0,1,1,0,0,0,1,1,0,0,0,0,0,0,0,0,0,0,0,0,0,0,0,0,0,1,0,0,0,0,0,0,0,0,1,0,0,0,1,0,0,1,1,0,0,0,1,0,0,0,0,0,0,0,0,0,0,0,0,0,0,0,0,0,0,0,0,0,0,0,0,0,0,0,0,0,0,0,0,0,0,0,0,0,0,0,0,0,0,0,0,0,0,0,0,0,0,0,0,0,0,0,0,0,0,0,0,0,0,0,0,0,0,0,0,0,0,0,0,0,0,0,0,0,0,0,0,0,0,0,0,0,0,0,0,0,0,0,0,0,0,0,0,0,0,0,0,0,0,0,0,0,0,0,0,0,0,0,0,0,0,0],"id":2,"left_children":[1,3,5,7,9,11,13,15,17,19,21,23,25,27,29,31,33,35,37,39,41,43,45,47,49,51,53,55,57,59,61,63,65,67,69,71,73,75,77,79,81,83,85,87,89,91,-1,93,95,97,99,101,103,105,107,109,111,113,115,117,119,121,123,125,127,129,131,133,135,137,139,141,143,145,147,149,151,153,155,157,159,161,163,-1,165,167,-1,169,171,-1,-1,173,175,-1,177,179,181,183,185,187,189,191,193,195,197,199,201,203,205,207,209,211,213,215,217,219,221,223,225,227,229,231,233,-1,235,-1,-1,-1,-1,-1,-1,-1,-1,-1,-1,-1,-1,-1,-1,-1,-1,-1,-1,-1,-1,-1,-1,-1,-1,-1,-1,-1,-1,-1,-1,-1,-1,-1,-1,-1,-1,-1,-1,-1,-1,-1,-1,-1,-1,-1,-1,-1,-1,-1,-1,-1,-1,-1,-1,-1,-1,-1,-1,-1,-1,-1,-1,-1,-1,-1,-1,-1,-1,-1,-1,-1,-1,-1,-1,-1,-1,-1,-1,-1,-1,-1,-1,-1,-1,-1,-1,-1,-1,-1,-1,-1,-1,-1,-1,-1,-1,-1,-1,-1,-1,-1,-1,-1,-1,-1,-1,-1,-1,-1,-1,-1,-1],"loss_changes":[2.2022168E4,1.602998E3,1.0839941E3,3.6650488E2,9.480397E1,1.5399182E2,3.8837695E2,1.465664E2,1.1786279E2,3.8479145E1,3.328189E1,4.2155136E1,8.4696045E1,7.9137695E1,9.40061E1,3.698535E1,7.513452E1,2.886084E1,2.9414276E1,2.3479353E1,7.1908684E0,2.0845055E1,9.195701E0,2.0216457E1,3.8919876E1,3.921521E1,3.8717117E1,2.774585E1,5.7222656E1,3.4432373E1,5.0524567E1,2.644336E1,8.1188965E0,7.9470215E0,1.818628E1,9.704681E0,2.2086304E1,2.1814445E1,1.6735565E1,1.3918339E1,1.677872E1,5.5892487E0,3.4059975E0,1.2687843E1,4.3094816E0,5.566718E0,0E0,8.940466E0,2.9547174E1,1.9630905E1,2.5321232E1,3.3109375E1,1.7934464E1,1.974768E1,1.7270489E1,4.3552032E1,1.4182373E1,1.0613525E1,2.2952148E1,1.6254929E1,3.7757324E1,2.105896E1,2.1950052E1,7.1049805E0,1.3889404E1,6.409668E0,8.293457E0,8.506744E0,7.8563232E0,8.988281E0,5.4119263E0,3.7111816E0,2.6067104E1,1.0306427E1,1.2504089E1,1.0814713E1,1.8265244E1,7.642044E0,1.0336716E1,2.5186043E0,1.7001705E1,2.4675077E1,1.2172768E1,0E0,5.033699E0,2.6020727E0,0E0,2.062159E1,2.0686333E1,0E0,0E0,1.2257485E1,1.073066E1,0E0,1.008916E1,1.2017097E0,1.0567107E1,1.1070477E1,1.8179153E1,9.377337E0,2.0683302E1,2.2520065E1,1.4510925E1,1.0640297E1,2.151995E1,1.0195368E1,1.0744972E1,7.433592E0,1.3567789E1,3.2006218E1,1.2488861E1,9.143066E0,8.172119E0,1.707837E1,1.155957E1,1.3258301E1,1.4009003E1,1.7988693E1,4.653427E0,2.8840576E1,1.0629345E1,1.7316498E1,1.3664673E1,0E0,1.353283E1,0E0,0E0,0E0,0E0,0E0,0E0,0E0,0E0,0E0,0E0,0E0,0E0,0E0,0E0,0E0,0E0,0E0,0E0,0E0,0E0,0E0,0E0,0E0,0E0,0E0,0E0,0E0,0E0,0E0,0E0,0E0,0E0,0E0,0E0,0E0,0E0,0E0,0E0,0E0,0E0,0E0,0E0,0E0,0E0,0E0,0E0,0E0,0E0,0E0,0E0,0E0,0E0,0E0,0E0,0E0,0E0,0E0,0E0,0E0,0E0,0E0,0E0,0E0,0E0,0E0,0E0,0E0,0E0,0E0,0E0,0E0,0E0,0E0,0E0,0E0,0E0,0E0,0E0,0E0,0E0,0E0,0E0,0E0,0E0,0E0,0E0,0E0,0E0,0E0,0E0,0E0,0E0,0E0,0E0,0E0,0E0,0E0,0E0,0E0,0E0,0E0,0E0,0E0,0E0,0E0,0E0,0E0,0E0,0E0,0E0,0E0,0E0],"parents":[2147483647,0,0,1,1,2,2,3,3,4,4,5,5,6,6,7,7,8,8,9,9,10,10,11,11,12,12,13,13,14,14,15,15,16,16,17,17,18,18,19,19,20,20,21,21,22,22,23,23,24,24,25,25,26,26,27,27,28,28,29,29,30,30,31,31,32,32,33,33,34,34,35,35,36,36,37,37,38,38,39,39,40,40,41,41,42,42,43,43,44,44,45,45,47,47,48,48,49,49,50,50,51,51,52,52,53,53,54,54,55,55,56,56,57,57,58,58,59,59,60,60,61,61,62,62,63,63,64,64,65,65,66,66,67,67,68,68,69,69,70,70,71,71,72,72,73,73,74,74,75,75,76,76,77,77,78,78,79,79,80,80,81,81,82,82,84,84,85,85,87,87,88,88,91,91,92,92,94,94,95,95,96,96,97,97,98,98,99,99,100,100,101,101,102,102,103,103,104,104,105,105,106,106,107,107,108,108,109,109,110,110,111,111,112,112,113,113,114,114,115,115,116,116,117,117,118,118,119,119,120,120,121,121,122,122,124,124],"right_children":[2,4,6,8,10,12,14,16,18,20,22,24,26,28,30,32,34,36,38,40,42,44,46,48,50,52,54,56,58,60,62,64,66,68,70,72,74,76,78,80,82,84,86,88,90,92,-1,94,96,98,100,102,104,106,108,110,112,114,116,118,120,122,124,126,128,130,132,134,136,138,140,142,144,146,148,150,152,154,156,158,160,162,164,-1,166,168,-1,170,172,-1,-1,174,176,-1,178,180,182,184,186,188,190,192,194,196,198,200,202,204,206,208,210,212,214,216,218,220,222,224,226,228,230,232,234,-1,236,-1,-1,-1,-1,-1,-1,-1,-1,-1,-1,-1,-1,-1,-1,-1,-1,-1,-1,-1,-1,-1,-1,-1,-1,-1,-1,-1,-1,-1,-1,-1,-1,-1,-1,-1,-1,-1,-1,-1,-1,-1,-1,-1,-1,-1,-1,-1,-1,-1,-1,-1,-1,-1,-1,-1,-1,-1,-1,-1,-1,-1,-1,-1,-1,-1,-1,-1,-1,-1,-1,-1,-1,-1,-1,-1,-1,-1,-1,-1,-1,-1,-1,-1,-1,-1,-1,-1,-1,-1,-1,-1,-1,-1,-1,-1,-1,-1,-1,-1,-1,-1,-1,-1,-1,-1,-1,-1,-1,-1,-1,-1,-1],"split_conditions":[3E0,2E0,3.797094E-1,1E0,4.1501674E-1,2.023891E-1,3.735031E-1,3.9073646E-1,4.5217755E-1,6.8735147E-1,5.1651484E-1,5.2310094E-2,5.666475E-1,5.3000516E-1,5.490217E-1,5.6025E-1,4.2542574E-1,1.13004185E-1,3.2510915E-1,5.2310094E-2,NaN,7.431745E-1,5.720918E-1,NaN,5.212572E-1,6.2801933E-1,5.045032E-1,3.102271E-1,2.3675492E-1,1.7425556E-1,5.045032E-1,2.4862827E-1,7.673018E-1,NaN,5.980528E-1,NaN,4.1007343E-1,4.6978608E-1,5.085116E-1,NaN,4.7120804E-1,1.1470723E-1,3.228057E-1,6.3195E-1,4.6703944E-1,6.322867E-1,4.9298678E-2,8.007572E-2,1.3325933E-1,1.08540274E-1,NaN,NaN,5.5642348E-2,NaN,NaN,NaN,NaN,1.09286055E-1,5.8666754E-1,7.639068E-1,6.130508E-1,6.278218E-1,NaN,3.5683727E-1,2.7045432E-1,2.5947893E-2,2.905464E-1,3.439826E-2,6.704149E-1,5.5155927E-1,3.5399532E-1,6.993756E-1,1.9380763E-1,1.4333932E-1,7.431745E-1,4.1207507E-1,NaN,NaN,6.832585E-1,5.339382E-1,2.5121728E-1,NaN,NaN,1.779623E-2,3.6873984E-1,2.4810241E-1,4.652952E-2,4.9151954E-1,2.3675492E-1,7.057211E-2,1.6119273E-2,4.3550536E-1,4.5217755E-1,6.2933445E-2,3.7117344E-1,5.6738895E-1,6.2801933E-1,4E0,2.614167E-1,1.503276E-1,NaN,3.127382E-1,1.6266774E-1,3.1213537E-2,7.968347E-1,1.5E1,6.322867E-1,3.0529562E-1,1.5429147E-1,NaN,2.5348508E-1,4.9636057E-1,5E0,NaN,6.2172955E-1,2.3122853E-1,NaN,NaN,3.9566046E-1,4.6356437E-1,6.2432796E-1,NaN,4.146547E-1,7.14849E-2,6E0,6.897713E-2,6.12014E-2,6.373482E-2,4.967748E-2,8.199029E-2,6.664086E-2,8.3177015E-2,5.8633223E-2,1.7812002E-2,5.2917395E-2,4.078747E-2,5.2824397E-2,5.176458E-2,6.493032E-2,6.828175E-2,5.553422E-2,5.8353752E-2,7.550153E-2,-2.9570073E-2,5.2265413E-2,5.379187E-2,3.2260604E-2,4.5972925E-2,9.455983E-2,-8.055636E-2,-6.8410654E-3,2.7368603E-2,1.0536601E-2,4.825016E-2,1.9624794E-2,3.0414503E-2,1.17167365E-2,7.205503E-2,3.3651255E-2,-5.908662E-2,2.983748E-2,1.33219E-2,-1.5454455E-2,2.1719463E-2,2.5410478E-3,4.5854975E-2,7.9799026E-2,2.4505831E-2,-2.0585073E-2,-2.3049552E-2,-3.0314487E-3,-8.7369375E-2,-1.796011E-2,-1.33329695E-2,1.8125338E-2,-4.2476468E-2,2.4281887E-2,4.0136263E-2,2.486199E-3,-6.189654E-2,-9.8230764E-2,-7.098552E-3,4.4475272E-2,-4.809831E-2,1.9337302E-2,-7.8173755E-3,-3.4176163E-2,2.3595918E-2,-4.332175E-3,-1.0699655E-2,-6.513454E-2,-5.2253548E-2,-2.7176516E-2,-3.734547E-2,-5.9765507E-2,-3.7545405E-2,-9.6495114E-2,-2.9388733E-2,1.6748097E-2,-1.0777228E-2,-7.564302E-2,-5.845685E-2,-2.8601062E-2,7.471957E-2,1.2537789E-2,-4.0609755E-2,1.6469127E-2,2.0109333E-2,-4.4788014E-2,-2.9374136E-2,-7.768066E-2,-5.6858316E-2,-7.886541E-2,-8.719809E-2,-7.355232E-2,-5.0888732E-2,-7.569437E-2,-6.3216075E-2,-8.271451E-2,-9.271089E-2,-8.3909966E-2,-5.8459688E-2,-8.702477E-2,-3.1346004E-2,-5.8702573E-2,-3.900089E-2,-8.61732E-2,-5.1906705E-2,-6.9958754E-2,6.838684E-3,-3.9781097E-2,-4.0823344E-2,-6.058765E-2,-3.5109486E-2,5.55214E-3,-3.7574172E-2,1.1301887E-2],"split_indices":[5,5,2,5,2,2,1,2,2,1,1,2,1,2,1,1,1,2,1,2,6,3,4,6,1,3,3,4,4,4,3,2,1,6,1,6,1,2,2,6,3,3,2,3,2,1,0,1,1,3,7,6,1,6,6,6,7,4,3,2,4,1,6,4,4,2,2,1,3,3,4,4,1,4,3,3,6,6,2,1,3,6,6,0,4,3,0,3,4,0,0,3,2,0,4,3,3,5,4,2,6,1,3,1,3,5,1,2,4,7,3,2,5,6,2,1,6,6,1,2,4,6,3,0,5,0,0,0,0,0,0,0,0,0,0,0,0,0,0,0,0,0,0,0,0,0,0,0,0,0,0,0,0,0,0,0,0,0,0,0,0,0,0,0,0,0,0,0,0,0,0,0,0,0,0,0,0,0,0,0,0,0,0,0,0,0,0,0,0,0,0,0,0,0,0,0,0,0,0,0,0,0,0,0,0,0,0,0,0,0,0,0,0,0,0,0,0,0,0,0,0,0,0,0,0,0,0,0,0,0,0,0,0,0,0,0,0],"split_type":[0,0,0,0,0,0,0,0,0,0,0,0,0,0,0,0,0,0,0,0,1,0,0,1,0,0,0,0,0,0,0,0,0,1,0,1,0,0,0,1,0,0,0,0,0,0,0,0,0,0,1,1,0,1,1,1,1,0,0,0,0,0,1,0,0,0,0,0,0,0,0,0,0,0,0,0,1,1,0,0,0,1,1,0,0,0,0,0,0,0,0,0,0,0,0,0,0,0,0,0,1,0,0,0,0,0,0,0,0,1,0,0,0,1,0,0,1,1,0,0,0,1,0,0,0,0,0,0,0,0,0,0,0,0,0,0,0,0,0,0,0,0,0,0,0,0,0,0,0,0,0,0,0,0,0,0,0,0,0,0,0,0,0,0,0,0,0,0,0,0,0,0,0,0,0,0,0,0,0,0,0,0,0,0,0,0,0,0,0,0,0,0,0,0,0,0,0,0,0,0,0,0,0,0,0,0,0,0,0,0,0,0,0,0,0,0,0,0,0,0,0,0,0,0,0,0,0,0,0,0,0,0,0,0,0,0,0],"sum_hessian":[3.2114553E4,1.8594479E4,1.3520073E4,1.607953E4,2.5149487E3,3.8653562E3,9.654717E3,1.1250634E4,4.828897E3,1.1656687E3,1.3492802E3,1.4539949E3,2.4113613E3,6.040694E3,3.6140227E3,5.6362246E3,5.6144087E3,2.6792122E3,2.1496848E3,1.0506465E3,1.15022224E2,1.0471018E3,3.021783E2,2.5160667E2,1.2023882E3,1.9245209E3,4.8684042E2,2.0015059E3,4.039188E3,2.4844048E3,1.129618E3,3.7142317E3,1.9219933E3,3.2435945E3,2.370814E3,5.709673E2,2.1082449E3,9.906486E2,1.1590361E3,1.0137303E2,9.4927344E2,8.720817E1,2.7814058E1,1.0235885E3,2.3513367E1,2.8617438E2,1.600392E1,1.3071584E2,1.2089085E2,8.401471E2,3.6224106E2,1.572568E3,3.519529E2,3.8560815E2,1.0123225E2,3.9801807E2,1.6034878E3,9.535827E2,3.0856052E3,4.4805334E2,2.0363514E3,1.0311305E3,9.8487595E1,2.2288206E3,1.4854109E3,1.5823169E3,3.396764E2,4.362554E2,2.807339E3,1.6468925E3,7.2392145E2,4.539663E2,1.1700096E2,9.635822E2,1.1446627E3,3.6161545E1,9.5448706E2,2.9844897E2,8.6058716E2,3.9249306E1,6.2123726E1,4.6041962E2,4.8885382E2,1.5083938E1,7.212423E1,1.8634285E1,9.179774E0,9.5630927E2,6.727923E1,9.226909E0,1.4286457E1,2.066565E2,7.951789E1,1.791586E1,1.1279997E2,1.9458637E1,1.0143221E2,5.72205E1,7.829266E2,1.8013739E2,1.8210368E2,5.361241E2,1.0364438E3,4.7616642E1,3.0433627E2,2.0056189E2,1.8504628E2,3.1504375E1,6.972787E1,1.7879245E2,2.1922562E2,3.8798883E2,1.215499E3,4.1706427E2,5.365185E2,2.8191113E3,2.664938E2,3.9522488E2,5.2828465E1,1.9035399E3,1.3281152E2,6.70296E2,3.6083444E2,1.4250989E1,8.42366E1,6.4113446E2,1.5876862E3,3.436074E2,1.1418036E3,1.1525809E2,1.4670587E3,2.7274796E2,6.6928444E1,2.806469E1,4.0819073E2,2.5839827E3,2.2335654E2,1.4173256E3,2.2956691E2,5.502196E2,1.7370181E2,3.949983E2,5.8968014E1,1.6414204E1,1.0058676E2,9.197315E1,8.716091E2,1.124455E3,2.0207722E1,1.0355412E1,2.5806135E1,5.041849E2,4.503022E2,2.5733853E2,4.111043E1,7.308506E2,1.2973656E2,2.9584562E1,9.664745E0,9.15236E0,5.2971367E1,1.775773E2,2.8284232E2,2.3443456E2,2.5441927E2,4.352215E1,2.8602081E1,9.121884E0,9.5124E0,6.956637E2,2.6064554E2,2.5943624E1,4.1335606E1,1.3956938E2,6.7087105E1,9.964983E0,6.955291E1,4.188041E1,7.091956E1,1.0407158E1,9.051479E0,8.3877144E1,1.7555065E1,1.0964178E1,4.6256325E1,1.1328934E2,6.6963727E2,1.05477264E2,7.466012E1,1.5112402E2,3.0979662E1,2.4128891E2,2.948352E2,1.23214455E2,9.1322943E2,2.7294935E1,2.0321707E1,2.6151062E2,4.282564E1,1.9120883E2,9.353057E0,7.897209E1,1.06074196E2,1.9825676E1,1.16786995E1,2.2467352E1,4.7260517E1,3.42156E1,1.4457684E2,2.2721432E1,1.9650418E2,2.9177585E2,9.621297E1,2.0609328E2,1.00940576E3,2.0797417E2,2.0909009E2,1.7106503E2,3.6545343E2,1.77532E3,1.0437915E3,1.535299E2,1.1296389E2,2.586452E2,1.3657965E2,1.0662348E1,4.2166115E1,4.2373865E2,1.4798013E3,2.0865786E1,1.1194573E2,3.720603E2,2.982357E2,3.279758E2,3.285864E1,3.6286175E1,4.7950428E1],"tree_param":{"num_deleted":"0","num_feature":"9","num_nodes":"237","size_leaf_vector":"0"}},{"base_weights":[-3.1377238E-3,6.686344E-1,-9.355099E-1,7.8255063E-1,-4.934178E-2,-5.571819E-1,-1.1014621E0,8.845027E-1,5.4853886E-1,2.814716E-1,-1.654673E-1,-1.8427616E-1,-6.5390533E-1,-1.2305366E0,-8.1583077E-1,1.0467654E0,8.0541265E-1,6.9563377E-1,4.1105682E-1,7.3089397E-1,2.0937102E-1,-2.4856523E-1,8.046504E-2,2.8984272E-1,-2.6654425E-1,-7.6222676E-1,-3.871422E-1,-8.875522E-1,-1.263843E0,-9.236812E-1,-6.265408E-1,9.751071E-1,1.1497355E0,7.5219184E-1,9.891257E-1,6.455253E-1,8.651931E-1,2.853848E-1,5.2491E-1,5.820672E-1,8.6479954E-2,5.277441E-1,9.079578E-2,-8.152402E-2,-3.6007348E-1,2.622406E-1,-1.0031718E-1,-6.435925E-2,4.2258683E-1,-2.9745713E-1,7.225279E-1,-8.111804E-1,-5.266179E-1,-4.4876277E-1,1.1510707E-1,-7.316726E-1,-1.1904852E0,-8.672043E-1,-1.2933133E0,-1.0113726E0,-6.909733E-1,-7.469099E-1,-1.8592276E-1,9.983864E-1,7.8607476E-1,1.3530046E0,1.1142913E0,7.044575E-1,8.105017E-1,1.0737506E0,9.27295E-1,5.80556E-1,7.989388E-1,9.4592583E-1,7.056057E-1,2.258281E-1,5.748416E-1,5.030821E-1,1.1863946E0,3.672804E-1,1.0025915E0,-1.6775986E-2,6.222819E-1,3.8576865E-1,7.8692095E-4,-8.33453E-2,-5.5022754E-2,-3.0618253E-1,-6.46226E-1,1.11122325E-1,6.0935843E-1,5.449262E-1,-1.6107774E-1,6.9915324E-2,3.4886304E-1,1.17878534E-1,-3.4763914E-1,6.8487726E-2,1.981109E-2,-6.989506E-1,-9.1246295E-1,-5.868869E-1,1.246927E-1,-5.482958E-1,-1.7491174E-1,4.1457814E-1,-3.769929E-1,-8.391038E-1,-3.7990388E-1,-5.290364E-1,-1.2885504E0,-7.8167826E-1,-1.2424718E0,-1.2080269E0,-1.4148254E0,-1.0649607E0,-6.6863155E-1,-1.539996E-1,-7.7277344E-1,-8.4672225E-1,-4.9520823E-1,-2.5012326E-1,6.504419E-2,5.66509E-2,6.381744E-2,6.459518E-2,4.1123345E-2,8.341004E-2,5.5437498E-2,7.431601E-2,6.372751E-2,4.6920635E-2,3.9634395E-2,5.2639663E-2,4.552169E-2,8.942635E-2,6.325141E-2,4.3374762E-2,6.0193744E-2,4.524542E-2,3.129534E-2,5.702161E-2,3.7646186E-2,5.4957744E-2,8.331075E-2,7.163471E-2,3.7729856E-2,1.2643364E-2,7.8098685E-2,-1.1380881E-2,3.7398327E-2,3.7173178E-2,2.3759129E-2,5.31725E-2,8.2925886E-2,5.1028423E-2,9.268009E-3,8.287001E-2,3.5635352E-2,4.980111E-2,6.238845E-3,6.181378E-3,4.512001E-2,8.283568E-3,-1.1908096E-2,3.7155566E-3,-1.7147917E-2,-1.9698681E-2,2.6817389E-2,1.0780825E-2,-4.5701735E-2,1.4295606E-2,-3.5073984E-2,-1.1750133E-2,4.553121E-2,6.624177E-2,3.600393E-3,7.3667294E-3,-2.1787016E-2,8.3545325E-3,3.885009E-2,2.9293237E-2,-3.5303026E-2,1.369202E-3,-2.4062043E-2,-7.123234E-2,-3.988123E-2,-6.2020686E-2,-4.838221E-2,-2.7984789E-2,-5.2808408E-2,2.6048604E-2,-2.7710447E-2,-3.6165904E-2,4.7481325E-3,3.6963697E-3,-3.484479E-2,5.231561E-2,1.10887075E-2,-4.081684E-2,2.259647E-2,-7.222481E-2,-4.0168505E-2,-3.612309E-2,5.022786E-2,-6.3107595E-2,-0E0,-9.267996E-2,-6.573006E-2,-5.1549286E-2,-7.6932553E-3,-4.0422462E-2,-8.317378E-2,-6.3824564E-2,-7.587039E-2,-9.078216E-2,-8.044584E-2,-4.0622227E-2,-6.8626076E-2,-9.210883E-3,-5.378746E-2,2.6078785E-2,-2.695939E-2,-5.3594902E-2,-3.0530706E-2,-3.247535E-2,-5.9884273E-2,-6.816122E-2,-2.3796383E-2,-4.705063E-3,-3.930565E-2],"categories":[1,2,3,4,5,7,8,0,1,3,5,6,9,0,5,0,2,6,8,7,9,3,5,6,7,9,1,2,3,4,5,7,8,1,4,0,2,3,6,7,0,1,2,6,7,9,2,5,8,9,2,4,6,0,1,2,3,1,3,4,5,7,8,0,1,2,3,4,6,1,2,5,7,8,9],"categories_nodes":[11,22,31,36,44,51,56,57,72,77,84,86,106,116,117,119],"categories_segments":[0,7,13,15,19,21,26,33,35,40,46,50,53,57,63,69],"categories_sizes":[7,6,2,4,2,5,7,2,5,6,4,3,4,6,6,6],"default_left":[0,0,0,0,0,0,0,0,0,0,0,1,0,0,0,0,0,0,0,0,0,0,1,0,0,0,0,0,0,0,0,1,0,0,0,0,1,0,0,0,0,0,0,0,1,0,0,0,0,0,0,1,0,0,0,0,1,1,0,0,0,0,0,0,0,0,0,0,0,0,0,0,1,0,0,0,0,1,0,0,0,0,0,0,1,0,1,0,0,0,0,0,0,0,0,0,0,0,0,0,0,0,0,0,0,0,1,0,0,0,0,0,0,0,0,0,1,1,0,1,0,0,0,0,0,0,0,0,0,0,0,0,0,0,0,0,0,0,0,0,0,0,0,0,0,0,0,0,0,0,0,0,0,0,0,0,0,0,0,0,0,0,0,0,0,0,0,0,0,0,0,0,0,0,0,0,0,0,0,0,0,0,0,0,0,0,0,0,0,0,0,0,0,0,0,0,0,0,0,0,0,0,0,0,0,0,0,0,0,0,0,0,0,0,0,0,0,0,0,0,0,0,0,0,0,0,0,0,0,0,0],"id":3,"left_children":[1,3,5,7,9,11,13,15,17,19,21,23,25,27,29,31,33,35,37,39,41,43,45,47,49,51,53,55,57,59,61,63,65,67,69,71,73,75,77,79,-1,81,83,85,87,89,91,-1,93,95,97,99,101,103,105,107,109,111,113,115,117,119,121,123,125,127,129,131,133,135,137,139,141,143,145,147,149,151,153,155,157,-1,159,161,163,-1,165,167,169,171,173,175,177,-1,179,181,183,-1,-1,185,187,189,191,193,195,197,199,201,203,205,207,209,211,213,215,217,219,221,223,225,227,229,-1,-1,-1,-1,-1,-1,-1,-1,-1,-1,-1,-1,-1,-1,-1,-1,-1,-1,-1,-1,-1,-1,-1,-1,-1,-1,-1,-1,-1,-1,-1,-1,-1,-1,-1,-1,-1,-1,-1,-1,-1,-1,-1,-1,-1,-1,-1,-1,-1,-1,-1,-1,-1,-1,-1,-1,-1,-1,-1,-1,-1,-1,-1,-1,-1,-1,-1,-1,-1,-1,-1,-1,-1,-1,-1,-1,-1,-1,-1,-1,-1,-1,-1,-1,-1,-1,-1,-1,-1,-1,-1,-1,-1,-1,-1,-1,-1,-1,-1,-1,-1,-1,-1,-1,-1,-1,-1,-1,-1],"loss_changes":[1.9959361E4,1.5149971E3,8.3752637E2,3.811006E2,9.740724E1,1.4661755E2,3.4155664E2,1.425127E2,9.790076E1,2.1161736E1,3.8402744E1,3.2706757E1,9.313635E1,7.253613E1,5.8642456E1,2.6479492E1,7.2848145E1,1.9609497E1,3.573828E1,9.011364E0,2.1324837E1,2.6069267E1,1.559633E1,2.2114714E1,2.1790562E1,2.6234497E1,2.8956955E1,2.6342712E1,6.761328E1,3.718335E1,5.5450226E1,9.112061E0,1.0260986E1,1.5859131E1,8.387085E0,1.7766357E1,6.5450134E0,2.04188E1,1.8658722E1,6.51103E0,0E0,1.1764084E1,1.0928539E1,1.9050476E1,1.2791428E1,1.2282427E1,9.226282E0,0E0,5.797394E0,1.4496803E1,3.1924572E0,2.1291748E1,1.5630203E1,2.2539932E1,1.5006695E1,1.3907898E1,1.2084412E1,1.2531403E1,5.5606445E1,2.417102E1,2.196289E1,2.0424988E1,1.8100576E1,6.2805176E0,6.7635193E0,1.9146423E0,8.430298E0,1.0941772E1,8.700317E0,7.7633667E0,1.338562E1,1.3258118E1,1.329303E1,5.3357544E0,6.731514E0,1.7626099E1,6.72332E0,1.5437103E1,1.8954353E0,4.9077735E0,3.406929E0,0E0,1.4153259E1,9.671178E0,8.530678E0,0E0,1.4693628E1,1.0165939E1,1.1997692E1,1.4211798E1,8.294815E0,5.1597314E0,1.2236627E1,0E0,6.1993847E0,1.9078661E1,1.1482559E1,0E0,0E0,1.6982758E1,1.2298584E1,1.2641518E1,5.932319E0,1.8839706E1,2.1110813E1,6.408471E0,8.600796E0,1.7418701E1,2.305711E1,6.9078517E0,7.650635E0,1.4836884E1,5.202614E0,2.1635254E1,1.5675293E1,3.079663E1,2.035804E1,1.141809E1,1.2923798E1,2.5727325E1,1.4808277E1,1.4636264E1,0E0,0E0,0E0,0E0,0E0,0E0,0E0,0E0,0E0,0E0,0E0,0E0,0E0,0E0,0E0,0E0,0E0,0E0,0E0,0E0,0E0,0E0,0E0,0E0,0E0,0E0,0E0,0E0,0E0,0E0,0E0,0E0,0E0,0E0,0E0,0E0,0E0,0E0,0E0,0E0,0E0,0E0,0E0,0E0,0E0,0E0,0E0,0E0,0E0,0E0,0E0,0E0,0E0,0E0,0E0,0E0,0E0,0E0,0E0,0E0,0E0,0E0,0E0,0E0,0E0,0E0,0E0,0E0,0E0,0E0,0E0,0E0,0E0,0E0,0E0,0E0,0E0,0E0,0E0,0E0,0E0,0E0,0E0,0E0,0E0,0E0,0E0,0E0,0E0,0E0,0E0,0E0,0E0,0E0,0E0,0E0,0E0,0E0,0E0,0E0,0E0,0E0,0E0,0E0,0E0,0E0,0E0,0E0,0E0],"parents":[2147483647,0,0,1,1,2,2,3,3,4,4,5,5,6,6,7,7,8,8,9,9,10,10,11,11,12,12,13,13,14,14,15,15,16,16,17,17,18,18,19,19,20,20,21,21,22,22,23,23,24,24,25,25,26,26,27,27,28,28,29,29,30,30,31,31,32,32,33,33,34,34,35,35,36,36,37,37,38,38,39,39,41,41,42,42,43,43,44,44,45,45,46,46,48,48,49,49,50,50,51,51,52,52,53,53,54,54,55,55,56,56,57,57,58,58,59,59,60,60,61,61,62,62,63,63,64,64,65,65,66,66,67,67,68,68,69,69,70,70,71,71,72,72,73,73,74,74,75,75,76,76,77,77,78,78,79,79,80,80,82,82,83,83,84,84,86,86,87,87,88,88,89,89,90,90,91,91,92,92,94,94,95,95,96,96,99,99,100,100,101,101,102,102,103,103,104,104,105,105,106,106,107,107,108,108,109,109,110,110,111,111,112,112,113,113,114,114,115,115,116,116,117,117,118,118,119,119,120,120,121,121],"right_children":[2,4,6,8,10,12,14,16,18,20,22,24,26,28,30,32,34,36,38,40,42,44,46,48,50,52,54,56,58,60,62,64,66,68,70,72,74,76,78,80,-1,82,84,86,88,90,92,-1,94,96,98,100,102,104,106,108,110,112,114,116,118,120,122,124,126,128,130,132,134,136,138,140,142,144,146,148,150,152,154,156,158,-1,160,162,164,-1,166,168,170,172,174,176,178,-1,180,182,184,-1,-1,186,188,190,192,194,196,198,200,202,204,206,208,210,212,214,216,218,220,222,224,226,228,230,-1,-1,-1,-1,-1,-1,-1,-1,-1,-1,-1,-1,-1,-1,-1,-1,-1,-1,-1,-1,-1,-1,-1,-1,-1,-1,-1,-1,-1,-1,-1,-1,-1,-1,-1,-1,-1,-1,-1,-1,-1,-1,-1,-1,-1,-1,-1,-1,-1,-1,-1,-1,-1,-1,-1,-1,-1,-1,-1,-1,-1,-1,-1,-1,-1,-1,-1,-1,-1,-1,-1,-1,-1,-1,-1,-1,-1,-1,-1,-1,-1,-1,-1,-1,-1,-1,-1,-1,-1,-1,-1,-1,-1,-1,-1,-1,-1,-1,-1,-1,-1,-1,-1,-1,-1,-1,-1,-1,-1],"split_conditions":[3E0,2E0,3.9660892E-1,1E0,2.6447767E-1,1.3443236E-1,4.1007343E-1,2.6447767E-1,4.0500012E-1,1.5429147E-1,5.1651484E-1,NaN,5.186984E-1,1.1353792E-1,5.490217E-1,5.339382E-1,5.6025E-1,6.0135096E-1,3.430498E-1,2.3717389E-1,7.4695624E-2,4.8253965E-1,NaN,6.012172E-2,1.6E1,6.4841056E-1,5.794889E-1,7.061876E-1,7.6689966E-2,4.6014166E-1,4.0235132E-1,NaN,3.2980576E-2,3.454503E-1,2.2331E-1,6.0041153E-1,NaN,6.111815E-1,7.358314E-1,6.5818775E-1,8.6479954E-2,2.6801726E-1,2.4919543E-1,5.818585E-2,NaN,6.539457E-1,4.187856E-2,-6.435925E-2,1.4843953E-1,1.9985927E-2,8.474007E-2,NaN,1.5E1,6.6914904E-1,6.348595E-1,1.3E1,NaN,NaN,6.0596526E-1,5.6004584E-1,6.2876746E-2,6.452894E-1,4.5892215E-1,3.0422652E-1,3.2247785E-1,6.7828846E-1,2.5518823E-1,3.679259E-1,3.8676646E-1,3.86025E-2,1.3436507E-1,1.3443236E-1,NaN,8.559417E-1,6.1644244E-1,8.075572E-1,2.3267351E-2,NaN,7.673018E-1,4.9569942E-2,1.13004185E-1,-1.6775986E-2,6.178583E-1,5.41312E-1,NaN,-8.33453E-2,NaN,7.108519E-1,9.247002E-2,6.2067866E-1,8.1872255E-2,2.4265842E-1,2.3675492E-1,6.9915324E-2,8.000487E-2,5.7795435E-1,1.2203997E-1,6.8487726E-2,1.981109E-2,3.439826E-2,3.0162805E-1,3.3228347E-1,2.661147E-1,6.466671E-1,3.247817E-1,2.4087034E-1,NaN,1.3819356E-1,6.6718435E-1,8.356221E-1,7.639068E-1,6.704149E-1,5E0,3.1330213E-1,1.8315804E-1,1.24524176E-1,NaN,NaN,1.1E1,NaN,4E0,3.190067E-1,6.504419E-2,5.66509E-2,6.381744E-2,6.459518E-2,4.1123345E-2,8.341004E-2,5.5437498E-2,7.431601E-2,6.372751E-2,4.6920635E-2,3.9634395E-2,5.2639663E-2,4.552169E-2,8.942635E-2,6.325141E-2,4.3374762E-2,6.0193744E-2,4.524542E-2,3.129534E-2,5.702161E-2,3.7646186E-2,5.4957744E-2,8.331075E-2,7.163471E-2,3.7729856E-2,1.2643364E-2,7.8098685E-2,-1.1380881E-2,3.7398327E-2,3.7173178E-2,2.3759129E-2,5.31725E-2,8.2925886E-2,5.1028423E-2,9.268009E-3,8.287001E-2,3.5635352E-2,4.980111E-2,6.238845E-3,6.181378E-3,4.512001E-2,8.283568E-3,-1.1908096E-2,3.7155566E-3,-1.7147917E-2,-1.9698681E-2,2.6817389E-2,1.0780825E-2,-4.5701735E-2,1.4295606E-2,-3.5073984E-2,-1.1750133E-2,4.553121E-2,6.624177E-2,3.600393E-3,7.3667294E-3,-2.1787016E-2,8.3545325E-3,3.885009E-2,2.9293237E-2,-3.5303026E-2,1.369202E-3,-2.4062043E-2,-7.123234E-2,-3.988123E-2,-6.2020686E-2,-4.838221E-2,-2.7984789E-2,-5.2808408E-2,2.6048604E-2,-2.7710447E-2,-3.6165904E-2,4.7481325E-3,3.6963697E-3,-3.484479E-2,5.231561E-2,1.10887075E-2,-4.081684E-2,2.259647E-2,-7.222481E-2,-4.0168505E-2,-3.612309E-2,5.022786E-2,-6.3107595E-2,-0E0,-9.267996E-2,-6.573006E-2,-5.1549286E-2,-7.6932553E-3,-4.0422462E-2,-8.317378E-2,-6.3824564E-2,-7.587039E-2,-9.078216E-2,-8.044584E-2,-4.0622227E-2,-6.8626076E-2,-9.210883E-3,-5.378746E-2,2.6078785E-2,-2.695939E-2,-5.3594902E-2,-3.0530706E-2,-3.247535E-2,-5.9884273E-2,-6.816122E-2,-2.3796383E-2,-4.705063E-3,-3.930565E-2],"split_indices":[5,5,2,5,2,2,1,2,2,4,1,7,1,4,1,1,1,1,1,2,2,2,7,1,5,3,3,2,0,3,3,7,2,1,4,3,7,3,1,3,0,4,0,4,7,1,3,0,0,2,2,7,5,1,3,5,7,7,2,0,4,1,0,1,3,0,0,0,4,3,3,2,7,1,1,0,1,7,1,4,2,0,4,1,7,0,7,3,4,1,3,0,4,0,2,0,3,0,0,1,1,2,1,0,3,2,7,1,2,2,2,3,5,0,1,0,7,7,5,7,5,0,0,0,0,0,0,0,0,0,0,0,0,0,0,0,0,0,0,0,0,0,0,0,0,0,0,0,0,0,0,0,0,0,0,0,0,0,0,0,0,0,0,0,0,0,0,0,0,0,0,0,0,0,0,0,0,0,0,0,0,0,0,0,0,0,0,0,0,0,0,0,0,0,0,0,0,0,0,0,0,0,0,0,0,0,0,0,0,0,0,0,0,0,0,0,0,0,0,0,0,0,0,0,0,0,0,0,0,0,0],"split_type":[0,0,0,0,0,0,0,0,0,0,0,1,0,0,0,0,0,0,0,0,0,0,1,0,0,0,0,0,0,0,0,1,0,0,0,0,1,0,0,0,0,0,0,0,1,0,0,0,0,0,0,1,0,0,0,0,1,1,0,0,0,0,0,0,0,0,0,0,0,0,0,0,1,0,0,0,0,1,0,0,0,0,0,0,1,0,1,0,0,0,0,0,0,0,0,0,0,0,0,0,0,0,0,0,0,0,1,0,0,0,0,0,0,0,0,0,1,1,0,1,0,0,0,0,0,0,0,0,0,0,0,0,0,0,0,0,0,0,0,0,0,0,0,0,0,0,0,0,0,0,0,0,0,0,0,0,0,0,0,0,0,0,0,0,0,0,0,0,0,0,0,0,0,0,0,0,0,0,0,0,0,0,0,0,0,0,0,0,0,0,0,0,0,0,0,0,0,0,0,0,0,0,0,0,0,0,0,0,0,0,0,0,0,0,0,0,0,0,0,0,0,0,0,0,0,0,0,0,0,0,0],"sum_hessian":[3.186641E4,1.8521516E4,1.3344895E4,1.5985464E4,2.5360515E3,4.069279E3,9.275616E3,1.1133867E4,4.851597E3,6.585046E2,1.877547E3,8.3850995E2,3.230769E3,6.388105E3,2.8875107E3,3.647583E3,7.486284E3,2.343133E3,2.508464E3,9.0634926E1,5.678696E2,1.4039171E3,4.7362988E2,1.2364017E2,7.148698E2,2.2972068E3,9.3356226E2,5.6601697E2,5.822088E3,1.8387377E3,1.0487731E3,2.1521138E3,1.4954694E3,5.8056304E3,1.6806534E3,1.809629E3,5.3350397E2,1.1931759E3,1.3152881E3,7.497706E1,1.5657864E1,1.536468E2,4.1422284E2,5.626955E2,8.412217E2,2.3665788E2,2.36972E2,1.0898122E1,1.1274205E2,6.9341174E2,2.1458048E1,1.9012887E3,3.9591812E2,8.3186774E2,1.0169455E2,3.7420923E2,1.9180775E2,4.031808E2,5.418907E3,1.3348135E3,5.039242E2,8.2339355E2,2.2537952E2,1.9151191E3,2.3699448E2,2.210465E2,1.2744229E3,3.194333E3,2.6112976E3,7.079984E2,9.72655E2,1.2722394E3,5.3738965E2,3.533813E2,1.801227E2,9.901538E2,2.0302211E2,1.2736123E3,4.16758E1,4.9968678E1,2.500838E1,1.5939686E1,1.3770712E2,9.633984E1,3.17883E2,1.1101602E1,5.5159393E2,7.0851294E2,1.327087E2,1.652828E2,7.137507E1,2.0107162E1,2.1686484E2,1.0029523E1,1.02712524E2,7.43517E1,6.1906006E2,1.0284688E1,1.117336E1,9.029168E2,9.9837195E2,3.626443E2,3.327382E1,6.0959784E2,2.222699E2,6.3454914E1,3.8239635E1,2.8621985E2,8.798938E1,2.504058E1,1.6676717E2,3.2885147E2,7.4329315E1,3.185239E3,2.2336682E3,1.1537937E3,1.8101974E2,6.6927765E1,4.3699643E2,5.890005E2,2.343931E2,2.1462503E2,1.0754482E1,9.028603E2,1.01225885E3,6.473589E1,1.7225858E2,2.0875726E2,1.2289238E1,4.4830423E2,8.2611865E2,1.3204801E3,1.8738529E3,1.3001573E3,1.3111401E3,4.696899E1,6.610294E2,2.351018E2,7.375532E2,3.5053238E2,9.21707E2,2.9677893E2,2.4061073E2,3.2507663E2,2.8304638E1,2.6100445E1,1.5402226E2,9.748057E2,1.5348074E1,1.0568361E1,1.9245375E2,6.35154E2,6.384583E2,1.6007587E1,2.5668211E1,1.5214408E1,3.4754272E1,1.2984658E1,1.2023722E1,9.910432E1,3.860281E1,5.416153E1,4.217831E1,1.8877562E2,1.2910738E2,3.647812E2,1.8681271E2,6.910856E2,1.7427406E1,1.52545185E1,1.1745418E2,1.4019377E2,2.5089033E1,1.0569313E1,6.0805756E1,9.233073E0,1.0874088E1,8.9152E1,1.2771283E2,6.0110172E1,4.2602356E1,4.90284E1,2.5323301E1,7.2955215E1,5.4610486E2,6.970508E1,8.3321173E2,5.0130698E2,4.9706497E2,2.529067E2,1.0973761E2,2.2036026E1,1.1237792E1,5.656163E2,4.3981556E1,1.3961795E2,8.265194E1,2.125848E1,4.2196434E1,2.756662E1,1.06730175E1,9.4519875E1,1.9169997E2,7.476419E1,1.322519E1,1.2776209E1,1.2264371E1,7.547301E1,9.129416E1,2.9691812E2,3.1933346E1,1.4128753E1,6.020056E1,7.235713E2,2.4616677E3,1.1250725E3,1.1085957E3,1.7142523E2,9.8236847E2,5.4303043E1,1.267167E2,2.2039652E1,4.488811E1,3.0745105E2,1.2954536E2,1.8571814E2,4.0328235E2,3.237033E1,2.0202277E2,1.5023122E2,6.439382E1],"tree_param":{"num_deleted":"0","num_feature":"9","num_nodes":"231","size_leaf_vector":"0"}},{"base_weights":[-5.7805157E-3,6.2466776E-1,-8.736167E-1,7.2814953E-1,-2.5778292E-2,-1.0261798E0,-6.202591E-1,8.2044476E-1,5.1695836E-1,-1.8353477E-1,1.2291386E-1,-1.0732943E0,-6.230553E-1,-7.250325E-1,-3.514944E-1,7.5990415E-1,9.6585387E-1,3.9997885E-1,6.472297E-1,-1.5614873E-1,-7.471319E-1,7.428844E-2,5.715015E-1,-1.1186751E0,-8.062802E-1,-7.4460876E-1,-2.4639563E-1,-8.025624E-1,-4.229049E-1,-2.6943097E-1,-5.771266E-1,7.099095E-1,8.2401544E-1,9.3379414E-1,1.0992758E0,5.659998E-1,3.298666E-1,6.0865855E-1,8.916126E-1,-2.5657398E-1,-2.4713734E-2,-4.9235776E-1,-1.1967534E-1,2.060946E-2,3.080157E-1,6.656986E-2,7.5441545E-1,-1.1853856E0,-8.8695616E-1,-6.9128466E-1,-9.818112E-1,-8.1279075E-1,-1.6100428E-1,3.9013226E-2,-7.372481E-1,-8.6994016E-1,-3.3061174E-1,-3.0991864E-1,-7.3748094E-1,-3.0856264E-1,2.8647625E-1,-3.7201483E-2,-6.595755E-1,6.6916233E-1,7.9367864E-1,7.800944E-1,8.9928895E-1,8.761179E-1,1.0436089E0,1.1260736E0,7.679371E-1,7.4145263E-1,4.8829612E-1,2.4385783E-1,5.1119584E-1,5.821368E-1,9.0721864E-1,1.1042947E0,7.491133E-1,-3.274637E-1,1.8119566E-1,6.74312E-2,-2.8913376E-1,-8.253196E-2,-1.8277626E-1,-1.4018732E-2,2.2674893E-1,2.428352E-1,6.72901E-2,-3.357024E-2,3.636772E-1,6.839849E-2,5.654575E-1,-1.2896016E0,-1.0164689E0,-9.5855767E-1,-5.9289294E-1,-7.162334E-1,3.036754E-2,-1.860427E-1,-1.019136E0,-8.656532E-1,-4.383807E-1,-8.756042E-1,1.065879E-1,-1.041515E-1,6.537288E-1,-5.383697E-1,-1.1964881E0,-9.233352E-1,-5.041962E-1,-8.47144E-2,-5.857161E-1,4.5066315E-1,-3.4847462E-1,-9.1614527E-1,-8.894654E-2,-3.5830212E-1,1.24056235E-1,-1.3084546E-1,7.8518975E-1,-5.882919E-2,2.047379E-1,-2.2782417E-1,-7.743272E-1,3.721278E-2,4.694794E-2,5.0955568E-2,3.8187005E-2,4.3619554E-2,5.3980887E-2,5.3216208E-2,8.171211E-2,4.8957516E-2,6.0074724E-2,6.1142348E-2,7.771389E-2,7.315374E-2,6.203824E-2,3.4517426E-2,7.637446E-2,4.1710604E-2,7.262004E-2,1.7752003E-2,4.0291764E-2,1.1297835E-2,3.286691E-2,9.11662E-2,2.9702239E-2,3.3312857E-2,4.8441056E-2,6.718924E-2,4.1251343E-2,7.2380535E-2,4.4562668E-2,4.1360684E-2,7.7319734E-2,9.510578E-3,-2.4524562E-2,-5.6114994E-2,2.191683E-2,-4.478286E-4,3.4146987E-2,-4.3857373E-2,-9.026305E-3,-3.7166674E-2,5.024836E-2,-3.6311003E-3,1.2461461E-2,6.2460724E-2,1.6389554E-3,3.4581047E-2,8.051165E-3,-7.404809E-3,4.4393167E-2,2.2868965E-2,5.9833992E-2,-7.342448E-2,-8.2766846E-2,-6.571681E-2,-4.7673304E-2,-6.1147615E-2,-2.3983244E-2,2.0511333E-2,-4.042337E-2,-5.2744243E-2,-3.20875E-2,-3.3911075E-2,1.23621905E-2,-8.815693E-2,-5.867328E-2,-4.9661733E-2,-7.794411E-2,-3.8537137E-2,1.4009781E-2,-2.5634108E-2,-7.710484E-2,4.388567E-2,-1.8848605E-2,4.4501196E-3,-3.952908E-2,5.8507998E-2,5.220076E-3,-1.1493719E-2,-5.8036476E-2,-9.8328464E-2,-3.1032713E-2,-6.0430814E-2,-4.8677687E-2,1.7090725E-2,-3.6520563E-2,-2.4632635E-2,6.387787E-3,-5.784028E-3,-4.6661682E-2,6.845713E-2,-5.1729274E-3,-2.4394726E-2,1.2294345E-2,-3.18774E-2,-6.701131E-2,-3.2448333E-2,3.736687E-2,-2.6372919E-2,-3.784004E-3,-4.6013E-2,1.4467331E-2,-3.2192223E-2,3.1168105E-2,2.7054048E-3,6.631812E-2,-1.4967391E-2,3.075592E-2,-7.486139E-2,2.9635285E-3,-6.7159645E-2,-3.7453383E-2],"categories":[3,4,5,12,0,1,3,4,6,7,8,9,11,12,2,4,5,8,10,1,2,7,1,2,4,6,0,1,2,3,5,7,8,10,11,12,7,8,11,1,3,7,8,0,3,6,10,11,12,0,1,3,5,8,10,11,12,0,1,4,5,8,9,10,11,12,1,3,5,7,9,10,8,0,1,2,3,4,5,0,1,2,3,6,0,1,3,4,11,0,1,2,3,4,0,1,2,3,4,5,6,0,1,2,3,4,5,6,7,8,9,1,3,4,5,6,8],"categories_nodes":[14,17,24,26,28,38,40,56,64,69,76,93,101,103,104,105,106,107,113,115],"categories_segments":[0,4,14,19,22,26,36,39,43,49,57,66,72,73,79,84,89,94,101,111],"categories_sizes":[4,10,5,3,4,10,3,4,6,8,9,6,1,6,5,5,5,7,10,6],"default_left":[0,0,0,0,0,0,0,0,0,0,0,0,0,0,1,0,0,1,0,0,0,0,0,0,1,0,1,0,1,0,0,0,0,0,0,0,0,0,1,0,1,0,0,0,0,0,0,0,0,0,0,0,0,0,0,0,1,0,0,0,0,0,0,0,1,0,0,0,0,1,0,0,0,0,0,0,1,0,0,0,0,0,0,0,0,0,0,0,0,0,0,0,0,1,0,0,0,0,0,0,0,1,0,1,1,1,1,1,0,0,0,0,0,1,0,1,0,0,0,0,0,0,0,0,0,0,0,0,0,0,0,0,0,0,0,0,0,0,0,0,0,0,0,0,0,0,0,0,0,0,0,0,0,0,0,0,0,0,0,0,0,0,0,0,0,0,0,0,0,0,0,0,0,0,0,0,0,0,0,0,0,0,0,0,0,0,0,0,0,0,0,0,0,0,0,0,0,0,0,0,0,0,0,0,0,0,0,0,0,0,0,0,0,0,0,0,0,0,0,0,0,0,0,0,0,0,0,0,0,0,0,0,0,0,0,0,0],"id":4,"left_children":[1,3,5,7,9,11,13,15,17,19,21,23,25,27,29,31,33,35,37,39,41,43,45,47,49,51,53,55,57,59,61,63,65,67,69,71,73,75,77,79,81,83,-1,85,87,89,91,93,95,97,99,101,103,105,107,109,111,113,115,117,119,121,123,125,127,129,131,133,135,137,139,141,143,145,147,149,151,153,155,157,159,161,163,-1,165,167,169,171,-1,-1,173,-1,175,177,179,181,183,185,-1,187,189,191,193,195,197,199,201,203,205,207,209,211,213,215,217,219,221,223,225,227,229,-1,231,233,235,-1,-1,-1,-1,-1,-1,-1,-1,-1,-1,-1,-1,-1,-1,-1,-1,-1,-1,-1,-1,-1,-1,-1,-1,-1,-1,-1,-1,-1,-1,-1,-1,-1,-1,-1,-1,-1,-1,-1,-1,-1,-1,-1,-1,-1,-1,-1,-1,-1,-1,-1,-1,-1,-1,-1,-1,-1,-1,-1,-1,-1,-1,-1,-1,-1,-1,-1,-1,-1,-1,-1,-1,-1,-1,-1,-1,-1,-1,-1,-1,-1,-1,-1,-1,-1,-1,-1,-1,-1,-1,-1,-1,-1,-1,-1,-1,-1,-1,-1,-1,-1,-1,-1,-1,-1,-1,-1,-1,-1,-1,-1,-1],"loss_changes":[1.7327678E4,1.2348462E3,5.1477637E2,3.082246E2,5.906848E1,1.5763086E2,1.40849E2,9.66001E1,7.315576E1,1.8694874E1,2.8138794E1,8.984082E1,3.9682953E1,8.417395E1,2.5865524E1,2.4621582E1,1.3428467E1,2.936139E1,2.1164001E1,1.5338003E1,1.7150558E1,1.4609104E1,1.1515419E1,9.7953125E1,2.1516052E1,2.5999664E1,2.9953848E1,9.09436E1,2.5975845E1,2.2444283E1,1.6532356E1,1.4631348E1,1.0922852E1,1.614624E1,5.1730957E0,1.0019623E1,2.7690994E1,1.5282654E1,9.010605E0,2.0515457E1,1.2365562E1,1.2333259E1,0E0,6.830933E0,1.114431E1,6.2298717E0,6.2214127E0,8.6498535E1,2.9663086E1,1.9540985E1,1.2476929E1,1.1401489E1,1.3369535E1,1.1933333E1,6.8274384E0,4.871167E1,2.237106E1,1.5892715E1,2.231108E1,2.0785713E1,1.4181046E1,1.1433588E1,1.5881012E1,1.677539E1,1.0873413E1,1.3990601E1,1.1007751E1,1.3063599E1,6.791321E0,4.359619E0,4.268921E0,5.1572495E0,1.7875343E1,2.0598076E1,1.135643E1,1.2304932E1,6.954544E0,3.762848E0,6.0846252E0,2.1426819E1,1.8277248E1,1.4021875E1,7.8361263E0,0E0,1.5155611E1,8.197503E0,2.1923206E1,7.1425457E0,0E0,0E0,4.2739906E0,0E0,4.6494675E0,1.764209E1,2.9419434E1,3.2812744E1,1.9530472E1,1.8237946E1,0E0,2.9065654E0,8.424194E0,9.440216E0,9.81673E0,3.0930834E0,1.3049137E1,1.0717242E1,4.35425E0,7.8592806E0,6.4228325E0,1.917212E1,2.4993835E1,1.1271311E1,1.5766285E1,9.657964E0,1.5550152E1,1.09704895E1,1.332103E1,1.968412E1,9.9743595E0,9.4909E0,6.905655E0,0E0,5.471076E0,1.9342962E1,1.3003174E1,0E0,0E0,0E0,0E0,0E0,0E0,0E0,0E0,0E0,0E0,0E0,0E0,0E0,0E0,0E0,0E0,0E0,0E0,0E0,0E0,0E0,0E0,0E0,0E0,0E0,0E0,0E0,0E0,0E0,0E0,0E0,0E0,0E0,0E0,0E0,0E0,0E0,0E0,0E0,0E0,0E0,0E0,0E0,0E0,0E0,0E0,0E0,0E0,0E0,0E0,0E0,0E0,0E0,0E0,0E0,0E0,0E0,0E0,0E0,0E0,0E0,0E0,0E0,0E0,0E0,0E0,0E0,0E0,0E0,0E0,0E0,0E0,0E0,0E0,0E0,0E0,0E0,0E0,0E0,0E0,0E0,0E0,0E0,0E0,0E0,0E0,0E0,0E0,0E0,0E0,0E0,0E0,0E0,0E0,0E0,0E0,0E0,0E0,0E0,0E0,0E0,0E0,0E0,0E0,0E0,0E0,0E0,0E0,0E0,0E0,0E0,0E0],"parents":[2147483647,0,0,1,1,2,2,3,3,4,4,5,5,6,6,7,7,8,8,9,9,10,10,11,11,12,12,13,13,14,14,15,15,16,16,17,17,18,18,19,19,20,20,21,21,22,22,23,23,24,24,25,25,26,26,27,27,28,28,29,29,30,30,31,31,32,32,33,33,34,34,35,35,36,36,37,37,38,38,39,39,40,40,41,41,43,43,44,44,45,45,46,46,47,47,48,48,49,49,50,50,51,51,52,52,53,53,54,54,55,55,56,56,57,57,58,58,59,59,60,60,61,61,62,62,63,63,64,64,65,65,66,66,67,67,68,68,69,69,70,70,71,71,72,72,73,73,74,74,75,75,76,76,77,77,78,78,79,79,80,80,81,81,82,82,84,84,85,85,86,86,87,87,90,90,92,92,93,93,94,94,95,95,96,96,97,97,99,99,100,100,101,101,102,102,103,103,104,104,105,105,106,106,107,107,108,108,109,109,110,110,111,111,112,112,113,113,114,114,115,115,116,116,117,117,118,118,119,119,120,120,122,122,123,123,124,124],"right_children":[2,4,6,8,10,12,14,16,18,20,22,24,26,28,30,32,34,36,38,40,42,44,46,48,50,52,54,56,58,60,62,64,66,68,70,72,74,76,78,80,82,84,-1,86,88,90,92,94,96,98,100,102,104,106,108,110,112,114,116,118,120,122,124,126,128,130,132,134,136,138,140,142,144,146,148,150,152,154,156,158,160,162,164,-1,166,168,170,172,-1,-1,174,-1,176,178,180,182,184,186,-1,188,190,192,194,196,198,200,202,204,206,208,210,212,214,216,218,220,222,224,226,228,230,-1,232,234,236,-1,-1,-1,-1,-1,-1,-1,-1,-1,-1,-1,-1,-1,-1,-1,-1,-1,-1,-1,-1,-1,-1,-1,-1,-1,-1,-1,-1,-1,-1,-1,-1,-1,-1,-1,-1,-1,-1,-1,-1,-1,-1,-1,-1,-1,-1,-1,-1,-1,-1,-1,-1,-1,-1,-1,-1,-1,-1,-1,-1,-1,-1,-1,-1,-1,-1,-1,-1,-1,-1,-1,-1,-1,-1,-1,-1,-1,-1,-1,-1,-1,-1,-1,-1,-1,-1,-1,-1,-1,-1,-1,-1,-1,-1,-1,-1,-1,-1,-1,-1,-1,-1,-1,-1,-1,-1,-1,-1,-1,-1,-1,-1],"split_conditions":[3E0,2E0,4.003568E-1,1E0,3.762969E-1,6.4841056E-1,5.8942354E-1,5.438139E-1,4.176261E-1,3.569992E-1,7.047552E-1,6.5012354E-1,7.529504E-1,5.2676153E-1,NaN,3.454503E-1,7.248567E-1,NaN,6.952332E-1,4.9398342E-1,5.699123E-1,5.629141E-1,1.5501846E-1,6.178583E-1,NaN,5.8026093E-1,NaN,5.9399146E-1,NaN,5.837947E-1,8.406745E-2,5.749124E-1,4.9668288E-1,4.4843698E-1,4.9046808E-1,2.9858625E-1,5.647891E-1,6.381148E-1,NaN,7.2524256E-1,NaN,3.6244318E-1,-1.1967534E-1,6.3721305E-1,5.6705326E-1,2.4292317E-1,2.388598E-1,4.870965E-1,7.7438235E-1,6.6012484E-1,3.6141925E-2,3.223581E-1,4.5188468E-2,8.598269E-1,3.7361273E-1,6.130508E-1,NaN,3.6917426E-2,6.381148E-1,5.692668E-1,6.322867E-1,4E0,4E0,5.975676E-1,NaN,5.46153E-1,6.1908144E-1,4.820198E-1,6.704149E-1,NaN,5.841994E-1,7.802583E-1,5.396434E-1,6.8797386E-1,1.4622754E-2,6.0760754E-1,NaN,4.1775322E-1,5.5305123E-1,4.5188468E-2,5.3302445E-2,7.529504E-1,1.0408145E-1,-8.253196E-2,4.8924065E-1,5.886441E-1,1.1731128E-1,4.3127418E-1,6.72901E-2,-3.357024E-2,7.673018E-1,6.839849E-2,3.757427E-1,NaN,3.0930483E-1,5.8202314E-1,3.6917426E-2,7.215991E-1,3.036754E-2,9E0,3.6795486E-2,NaN,4.6362096E-1,NaN,NaN,NaN,NaN,NaN,2.1239278E-1,4.6951374E-1,5.8598593E-2,6.247826E-1,6.187125E-1,NaN,5.5490375E-1,NaN,4.9914002E-1,7.136571E-1,4.4841487E-2,2.2965522E-1,6.111815E-1,-5.882919E-2,2.9845078E-2,1.2203997E-1,6.243311E-1,3.721278E-2,4.694794E-2,5.0955568E-2,3.8187005E-2,4.3619554E-2,5.3980887E-2,5.3216208E-2,8.171211E-2,4.8957516E-2,6.0074724E-2,6.1142348E-2,7.771389E-2,7.315374E-2,6.203824E-2,3.4517426E-2,7.637446E-2,4.1710604E-2,7.262004E-2,1.7752003E-2,4.0291764E-2,1.1297835E-2,3.286691E-2,9.11662E-2,2.9702239E-2,3.3312857E-2,4.8441056E-2,6.718924E-2,4.1251343E-2,7.2380535E-2,4.4562668E-2,4.1360684E-2,7.7319734E-2,9.510578E-3,-2.4524562E-2,-5.6114994E-2,2.191683E-2,-4.478286E-4,3.4146987E-2,-4.3857373E-2,-9.026305E-3,-3.7166674E-2,5.024836E-2,-3.6311003E-3,1.2461461E-2,6.2460724E-2,1.6389554E-3,3.4581047E-2,8.051165E-3,-7.404809E-3,4.4393167E-2,2.2868965E-2,5.9833992E-2,-7.342448E-2,-8.2766846E-2,-6.571681E-2,-4.7673304E-2,-6.1147615E-2,-2.3983244E-2,2.0511333E-2,-4.042337E-2,-5.2744243E-2,-3.20875E-2,-3.3911075E-2,1.23621905E-2,-8.815693E-2,-5.867328E-2,-4.9661733E-2,-7.794411E-2,-3.8537137E-2,1.4009781E-2,-2.5634108E-2,-7.710484E-2,4.388567E-2,-1.8848605E-2,4.4501196E-3,-3.952908E-2,5.8507998E-2,5.220076E-3,-1.1493719E-2,-5.8036476E-2,-9.8328464E-2,-3.1032713E-2,-6.0430814E-2,-4.8677687E-2,1.7090725E-2,-3.6520563E-2,-2.4632635E-2,6.387787E-3,-5.784028E-3,-4.6661682E-2,6.845713E-2,-5.1729274E-3,-2.4394726E-2,1.2294345E-2,-3.18774E-2,-6.701131E-2,-3.2448333E-2,3.736687E-2,-2.6372919E-2,-3.784004E-3,-4.6013E-2,1.4467331E-2,-3.2192223E-2,3.1168105E-2,2.7054048E-3,6.631812E-2,-1.4967391E-2,3.075592E-2,-7.486139E-2,2.9635285E-3,-6.7159645E-2,-3.7453383E-2],"split_indices":[5,5,1,5,1,3,1,1,1,1,1,0,3,3,6,1,1,6,1,3,3,3,0,4,6,0,7,0,6,3,0,3,0,3,4,4,3,3,6,4,6,1,0,1,0,3,0,3,4,4,4,1,1,3,4,4,7,0,3,0,1,5,5,4,6,3,3,0,3,6,4,0,4,0,4,4,6,3,4,1,1,3,1,0,3,4,4,1,0,0,1,0,4,6,1,0,0,0,0,5,1,7,4,7,7,6,7,6,0,4,3,0,0,6,1,7,1,1,4,4,3,0,0,3,1,0,0,0,0,0,0,0,0,0,0,0,0,0,0,0,0,0,0,0,0,0,0,0,0,0,0,0,0,0,0,0,0,0,0,0,0,0,0,0,0,0,0,0,0,0,0,0,0,0,0,0,0,0,0,0,0,0,0,0,0,0,0,0,0,0,0,0,0,0,0,0,0,0,0,0,0,0,0,0,0,0,0,0,0,0,0,0,0,0,0,0,0,0,0,0,0,0,0,0,0,0,0,0,0,0,0,0,0,0,0,0,0],"split_type":[0,0,0,0,0,0,0,0,0,0,0,0,0,0,1,0,0,1,0,0,0,0,0,0,1,0,1,0,1,0,0,0,0,0,0,0,0,0,1,0,1,0,0,0,0,0,0,0,0,0,0,0,0,0,0,0,1,0,0,0,0,0,0,0,1,0,0,0,0,1,0,0,0,0,0,0,1,0,0,0,0,0,0,0,0,0,0,0,0,0,0,0,0,1,0,0,0,0,0,0,0,1,0,1,1,1,1,1,0,0,0,0,0,1,0,1,0,0,0,0,0,0,0,0,0,0,0,0,0,0,0,0,0,0,0,0,0,0,0,0,0,0,0,0,0,0,0,0,0,0,0,0,0,0,0,0,0,0,0,0,0,0,0,0,0,0,0,0,0,0,0,0,0,0,0,0,0,0,0,0,0,0,0,0,0,0,0,0,0,0,0,0,0,0,0,0,0,0,0,0,0,0,0,0,0,0,0,0,0,0,0,0,0,0,0,0,0,0,0,0,0,0,0,0,0,0,0,0,0,0,0,0,0,0,0,0,0],"sum_hessian":[3.1670201E4,1.8343896E4,1.3326305E4,1.5826308E4,2.517589E3,8.317156E3,5.009148E3,1.1012581E4,4.813726E3,1.2221495E3,1.2954396E3,7.446353E3,8.708031E2,3.6035964E3,1.4055516E3,7.776417E3,3.2361646E3,2.537081E3,2.276645E3,1.1658759E3,5.6273697E1,1.1691621E3,1.2627746E2,6.3639395E3,1.0824137E3,6.5794855E2,2.1285455E2,2.8671697E3,7.364269E2,1.0313472E3,3.742045E2,4.3711245E3,3.4052922E3,2.6105818E3,6.2558276E2,7.5244446E2,1.7846365E3,1.9670752E3,3.095697E2,6.6009436E2,5.0578152E2,4.6787468E1,9.48623E0,9.514682E2,2.1769388E2,3.3860153E1,9.2417305E1,4.9406055E3,1.4233339E3,6.547305E2,4.2768317E2,5.8882776E2,6.912081E1,1.3438509E2,7.846946E1,2.508608E3,3.5856165E2,5.423097E2,1.9411723E2,9.63846E2,6.750108E1,4.9873184E1,3.243313E2,2.9424248E3,1.4286998E3,2.1523394E3,1.252953E3,1.7129569E3,8.976249E2,5.781694E2,4.7413383E1,2.3012285E2,5.223216E2,1.2112272E3,5.734093E2,1.8072686E3,1.5980667E2,1.2357049E2,1.8599922E2,5.684667E2,9.162771E1,3.7458948E2,1.3119205E2,1.207809E1,3.4709377E1,8.1390356E2,1.3756465E2,2.0161942E2,1.6074469E1,1.0746655E1,2.3113499E1,3.0552826E1,6.1864483E1,3.054634E3,1.8859717E3,1.1440521E3,2.7928165E2,6.414837E2,1.3246838E1,1.9391174E1,4.08292E2,5.155022E2,7.332558E1,1.8989822E1,5.0130985E1,1.0878884E2,2.5596252E1,5.509858E1,2.3370882E1,2.1885393E3,3.2006873E2,1.8296786E2,1.755938E2,2.5914917E1,5.163948E2,1.5195657E2,4.216066E1,8.648405E2,9.900554E1,3.656827E1,3.0932814E1,1.0384452E1,3.948873E1,6.846115E1,2.5587016E2,1.9461067E3,9.9631805E2,1.1028357E3,3.2586414E2,1.4036699E3,7.486693E2,1.1993774E3,5.3575493E1,1.0846088E3,6.283481E2,7.8790326E2,1.0972161E2,3.1803406E2,2.601353E2,3.417698E1,1.3236406E1,2.0690369E2,2.3219172E1,2.4915909E2,2.7316254E2,1.017149E3,1.9407814E2,1.1394983E1,5.620143E2,1.5773453E3,2.2992325E2,8.373951E1,7.6067154E1,9.856508E1,2.5005411E1,1.6573788E2,2.0261337E1,7.814992E1,4.9031674E2,1.2687693E1,7.894002E1,3.2525406E2,4.933542E1,3.1575941E1,9.961611E1,2.448362E1,1.0225757E1,6.738922E2,1.400113E2,2.7126177E1,1.1043848E2,5.008483E1,1.5153459E2,9.784184E0,1.3329314E1,4.319721E1,1.8667273E1,1.534896E3,1.5197379E3,1.4487401E3,4.3723154E2,1.0478942E3,9.6157936E1,2.0558666E1,2.58723E2,3.495466E2,2.919371E2,1.012888E1,9.262295E0,4.1446445E1,3.6684555E2,4.6591748E2,4.9584694E1,5.6797195E1,1.652838E1,9.144567E0,9.845256E0,2.0381334E1,2.9749653E1,8.196081E1,2.6828035E1,1.6277758E1,9.318496E0,3.0389387E1,2.4709194E1,1.4179846E1,9.191035E0,1.3441174E3,8.444218E2,3.5574978E1,2.8449377E2,6.826558E1,1.14702286E2,4.839918E1,1.271946E2,1.155217E1,1.4362747E1,4.7030338E2,4.6091385E1,5.0297756E1,1.0165882E2,2.5981565E1,1.6179092E1,6.8515826E2,1.7968225E2,1.1177711E1,8.782783E1,2.273915E1,1.3829123E1,9.319736E0,2.161308E1,1.561928E1,2.3869453E1,1.4849765E1,5.361139E1,8.074503E1,1.7512512E2],"tree_param":{"num_deleted":"0","num_feature":"9","num_nodes":"237","size_leaf_vector":"0"}},{"base_weights":[1.1101936E-2,6.0023755E-1,-8.1364405E-1,7.016829E-1,-3.5013642E-2,-4.7451553E-1,-9.817697E-1,7.973648E-1,4.8284277E-1,1.2127525E-1,-2.1728678E-1,-2.2414653E-1,-5.997252E-1,-1.0877984E0,-6.6684896E-1,9.0045285E-1,6.8978775E-1,6.5699935E-1,3.89162E-1,8.0525376E-2,4.841172E-1,-7.5180745E-1,-1.5264669E-1,8.405692E-1,-2.4604163E-1,-6.940519E-1,-3.2381916E-1,-8.9127296E-1,-1.1427199E0,-7.238187E-1,-4.411723E-1,1.0044127E0,8.642683E-1,6.032822E-1,7.7658266E-1,5.5592805E-1,7.6210916E-1,3.618308E-1,7.127996E-1,2.1968308E-1,6.831786E-3,7.5485694E-1,-3.5380617E-1,-3.180695E-1,-9.4461477E-1,-2.5262865E-1,8.261352E-2,2.8600194E-2,8.567372E-2,-3.2505307E-1,-6.5535326E-3,-3.7165293E-1,-7.5197756E-1,-3.9623404E-1,1.7394966E-1,-1.0502272E0,-7.971059E-1,-9.9575865E-1,-1.2263174E0,-7.646767E-1,-3.296065E-1,-4.782779E-1,4.331921E-2,9.3719786E-1,1.0751929E0,9.2569554E-1,8.021432E-1,1.1513435E0,5.924469E-1,5.954124E-1,8.0387086E-1,7.0274204E-1,4.0879083E-1,1.1098588E0,7.223989E-1,5.0057656E-1,3.1483057E-1,7.760812E-1,2.0036732E-1,3.5375047E-1,9.381148E-2,3.7678695E-1,-4.3462224E-2,1.6605873E-1,9.0376264E-1,5.5992108E-2,-5.541431E-2,-6.41832E-1,2.0603808E-2,-7.525234E-1,-1.3775017E0,-1.2021271E-1,-4.100047E-1,2.7743044E-1,-7.979902E-2,3.7776586E-3,-3.8200116E-1,1.7386803E-1,-2.5210056E-1,-7.097604E-2,-6.3967067E-1,-4.126477E-1,-7.917965E-1,-3.6351424E-1,-7.952461E-1,5.836135E-2,8.015549E-2,-9.407533E-1,-1.2404735E0,-8.678183E-1,-4.4112867E-1,-1.0566624E0,-7.3114014E-1,-1.0471336E0,-1.3237913E0,-8.298203E-1,-5.912276E-1,-6.039106E-1,4.949853E-2,-2.9857293E-1,-6.2953407E-1,6.233495E-2,5.144775E-2,8.242956E-2,6.323778E-2,6.0903907E-2,5.2405525E-2,5.5140574E-2,4.384043E-2,8.558296E-2,4.9308203E-2,4.2326957E-2,3.3054095E-2,4.833963E-2,2.4800822E-2,4.6295963E-2,5.7128675E-2,3.584262E-2,5.83695E-2,8.6398594E-2,2.3283644E-2,9.5558524E-2,6.1577994E-2,6.041309E-2,4.00243E-2,3.6992956E-2,1.544218E-2,1.6425824E-2,3.0348698E-2,5.927386E-2,3.4422584E-2,-1.26822E-2,4.305783E-2,-2.4103701E-2,2.465312E-2,1.0122005E-2,-4.885862E-2,2.386198E-3,3.3168145E-2,1.1844318E-2,-7.539392E-3,3.588321E-2,-2.2430299E-2,7.413358E-2,3.3711005E-2,-2.8130623E-2,3.9042078E-2,-3.017088E-3,-6.273483E-2,-7.605632E-2,9.113286E-4,-1.12040624E-1,-4.8841484E-2,-9.421467E-3,4.094582E-2,-9.32038E-3,-3.7320495E-2,9.820955E-3,7.4748196E-2,3.7822183E-2,-8.561656E-3,-8.710283E-3,2.9141802E-2,1.0184424E-2,-2.5525268E-2,2.3052244E-2,-8.239617E-3,1.0606682E-2,-2.982062E-2,-6.581436E-2,1.251767E-3,-4.3776045E-3,-4.6639852E-2,-3.3902E-2,2.3254467E-2,-3.9923187E-2,-5.2365147E-2,-2.956935E-2,-1.4964756E-2,4.386695E-3,-7.538494E-2,-5.8683516E-3,2.8529385E-2,-2.3264833E-2,-6.215879E-2,-6.455085E-2,-8.609641E-2,-3.4340605E-2,-5.7341557E-2,-1.5283976E-2,-7.2735175E-2,-6.553218E-2,-2.7781138E-2,2.2420652E-2,-4.73246E-2,-6.495453E-2,-2.2308486E-2,-7.6330006E-2,-8.839395E-2,-4.084484E-2,-5.6060437E-2,-3.8285363E-2,3.217834E-2,1.7552072E-2,-4.6396248E-2,1.6201612E-2,-2.8345488E-2,1.2746308E-2,-2.7759673E-2,-3.278517E-2,-7.353885E-2],"categories":[0,1,5,6,9,1,2,3,5,6,7,0,2,3,6,7,9,0,2,3,5,8,9,0,1,2,3,5,7,1,2,4,2,3,6,8,9,0,1,3,5,6,9,0,2,4,5,6,8,0,2,5,8,1,3,5,7,8,9,2,3,4,5,6,7,8,0,2,3,5,6],"categories_nodes":[20,21,35,39,46,50,61,63,65,75,102,107,118],"categories_segments":[0,5,11,17,23,29,32,37,43,49,53,59,66],"categories_sizes":[5,6,6,6,6,3,5,6,6,4,6,7,5],"default_left":[0,0,0,0,0,0,0,0,0,0,0,0,0,0,0,0,0,0,0,0,1,1,0,0,0,0,0,0,0,0,0,0,0,0,0,1,0,0,0,1,0,0,0,0,0,0,1,0,0,0,1,0,0,0,0,0,0,0,0,0,0,1,0,1,0,1,0,0,0,0,0,0,0,0,0,1,0,0,0,0,0,0,0,0,0,0,0,0,0,0,0,0,0,0,0,0,0,0,0,0,0,0,1,0,0,0,0,1,0,0,0,0,0,0,0,0,0,0,1,0,0,0,0,0,0,0,0,0,0,0,0,0,0,0,0,0,0,0,0,0,0,0,0,0,0,0,0,0,0,0,0,0,0,0,0,0,0,0,0,0,0,0,0,0,0,0,0,0,0,0,0,0,0,0,0,0,0,0,0,0,0,0,0,0,0,0,0,0,0,0,0,0,0,0,0,0,0,0,0,0,0,0,0,0,0,0,0,0,0,0,0,0,0,0,0,0,0,0,0,0,0,0,0,0,0,0,0,0,0,0,0],"id":5,"left_children":[1,3,5,7,9,11,13,15,17,19,21,23,25,27,29,31,33,35,37,39,41,43,45,47,49,51,53,55,57,59,61,63,65,67,69,71,73,75,77,79,81,83,85,87,89,91,93,-1,-1,95,97,99,101,103,105,107,109,111,113,115,117,119,-1,121,123,125,127,129,131,133,135,137,139,141,143,145,147,149,151,153,155,157,159,161,163,165,-1,167,-1,169,171,173,175,177,179,181,183,185,187,189,191,193,195,197,199,-1,201,203,205,207,209,211,213,215,217,219,221,223,225,227,229,-1,-1,-1,-1,-1,-1,-1,-1,-1,-1,-1,-1,-1,-1,-1,-1,-1,-1,-1,-1,-1,-1,-1,-1,-1,-1,-1,-1,-1,-1,-1,-1,-1,-1,-1,-1,-1,-1,-1,-1,-1,-1,-1,-1,-1,-1,-1,-1,-1,-1,-1,-1,-1,-1,-1,-1,-1,-1,-1,-1,-1,-1,-1,-1,-1,-1,-1,-1,-1,-1,-1,-1,-1,-1,-1,-1,-1,-1,-1,-1,-1,-1,-1,-1,-1,-1,-1,-1,-1,-1,-1,-1,-1,-1,-1,-1,-1,-1,-1,-1,-1,-1,-1,-1,-1,-1,-1,-1,-1,-1],"loss_changes":[1.5342566E4,1.187125E3,7.4988574E2,3.323286E2,7.226782E1,1.3656439E2,2.933496E2,1.2223584E2,7.864258E1,2.0076918E1,4.0301544E1,3.380845E1,7.5456055E1,7.060596E1,2.8265625E1,2.084668E1,4.0338135E1,1.7690857E1,2.7595215E1,1.254785E1,3.124437E1,1.0298935E1,2.4619474E1,5.793804E0,2.691146E1,4.0228394E1,2.6759216E1,2.1153687E1,6.271338E1,2.827771E1,1.9174522E1,6.5133057E0,1.5631592E1,1.5746948E1,1.3066162E1,1.8413849E1,1.1055389E1,1.8748993E1,7.7345123E0,7.075102E0,1.5011285E1,8.916252E0,7.8452578E0,8.40864E0,6.7980423E0,1.5199749E1,9.88484E0,0E0,0E0,2.0128883E1,1.5708771E1,2.6495644E1,2.4565308E1,8.228508E0,6.760209E0,1.0677612E1,2.2500793E1,2.9704346E1,5.673535E1,1.7822998E1,1.7426123E1,1.1611443E1,0E0,5.663208E0,5.715454E0,9.770142E0,1.7331665E1,4.1541443E0,1.2938477E1,1.31286545E1,1.2498657E1,1.2164124E1,1.0284363E1,3.119423E0,1.2219238E1,1.9696167E1,1.743422E1,8.834763E0,5.7955256E0,8.233576E0,1.4399415E1,5.4666185E0,1.3690133E1,4.923178E0,8.8533325E0,5.9216485E0,0E0,5.9733925E0,0E0,2.3660797E1,6.5758133E0,1.1171079E1,1.7551651E1,1.540038E1,7.26322E0,1.1183955E1,1.995433E1,1.3114921E1,1.5521523E1,1.4730511E1,1.2772636E1,2.2731152E1,1.55928955E1,8.561058E0,1.9190699E1,0E0,5.8964515E0,1.5975983E1,5.6328125E0,1.7667297E1,2.128616E1,2.301477E1,1.9547089E1,1.9886719E1,1.7642578E1,1.7044006E1,2.0275574E1,1.41688385E1,7.838465E0,1.6239182E1,1.17497635E1,0E0,0E0,0E0,0E0,0E0,0E0,0E0,0E0,0E0,0E0,0E0,0E0,0E0,0E0,0E0,0E0,0E0,0E0,0E0,0E0,0E0,0E0,0E0,0E0,0E0,0E0,0E0,0E0,0E0,0E0,0E0,0E0,0E0,0E0,0E0,0E0,0E0,0E0,0E0,0E0,0E0,0E0,0E0,0E0,0E0,0E0,0E0,0E0,0E0,0E0,0E0,0E0,0E0,0E0,0E0,0E0,0E0,0E0,0E0,0E0,0E0,0E0,0E0,0E0,0E0,0E0,0E0,0E0,0E0,0E0,0E0,0E0,0E0,0E0,0E0,0E0,0E0,0E0,0E0,0E0,0E0,0E0,0E0,0E0,0E0,0E0,0E0,0E0,0E0,0E0,0E0,0E0,0E0,0E0,0E0,0E0,0E0,0E0,0E0,0E0,0E0,0E0,0E0,0E0,0E0,0E0,0E0,0E0,0E0,0E0],"parents":[2147483647,0,0,1,1,2,2,3,3,4,4,5,5,6,6,7,7,8,8,9,9,10,10,11,11,12,12,13,13,14,14,15,15,16,16,17,17,18,18,19,19,20,20,21,21,22,22,23,23,24,24,25,25,26,26,27,27,28,28,29,29,30,30,31,31,32,32,33,33,34,34,35,35,36,36,37,37,38,38,39,39,40,40,41,41,42,42,43,43,44,44,45,45,46,46,49,49,50,50,51,51,52,52,53,53,54,54,55,55,56,56,57,57,58,58,59,59,60,60,61,61,63,63,64,64,65,65,66,66,67,67,68,68,69,69,70,70,71,71,72,72,73,73,74,74,75,75,76,76,77,77,78,78,79,79,80,80,81,81,82,82,83,83,84,84,85,85,87,87,89,89,90,90,91,91,92,92,93,93,94,94,95,95,96,96,97,97,98,98,99,99,100,100,101,101,102,102,103,103,104,104,106,106,107,107,108,108,109,109,110,110,111,111,112,112,113,113,114,114,115,115,116,116,117,117,118,118,119,119,120,120],"right_children":[2,4,6,8,10,12,14,16,18,20,22,24,26,28,30,32,34,36,38,40,42,44,46,48,50,52,54,56,58,60,62,64,66,68,70,72,74,76,78,80,82,84,86,88,90,92,94,-1,-1,96,98,100,102,104,106,108,110,112,114,116,118,120,-1,122,124,126,128,130,132,134,136,138,140,142,144,146,148,150,152,154,156,158,160,162,164,166,-1,168,-1,170,172,174,176,178,180,182,184,186,188,190,192,194,196,198,200,-1,202,204,206,208,210,212,214,216,218,220,222,224,226,228,230,-1,-1,-1,-1,-1,-1,-1,-1,-1,-1,-1,-1,-1,-1,-1,-1,-1,-1,-1,-1,-1,-1,-1,-1,-1,-1,-1,-1,-1,-1,-1,-1,-1,-1,-1,-1,-1,-1,-1,-1,-1,-1,-1,-1,-1,-1,-1,-1,-1,-1,-1,-1,-1,-1,-1,-1,-1,-1,-1,-1,-1,-1,-1,-1,-1,-1,-1,-1,-1,-1,-1,-1,-1,-1,-1,-1,-1,-1,-1,-1,-1,-1,-1,-1,-1,-1,-1,-1,-1,-1,-1,-1,-1,-1,-1,-1,-1,-1,-1,-1,-1,-1,-1,-1,-1,-1,-1,-1,-1,-1],"split_conditions":[3E0,2E0,4.1253328E-1,1E0,4.609633E-1,2.0664692E-1,4.4920653E-1,3.9941627E-1,3.0953008E-1,6.7455363E-1,8.007572E-2,5.46952E-2,5.339382E-1,2.3990874E-1,6.1230993E-1,1.0837958E-1,3.705226E-1,4.6053153E-1,6.4968896E-1,2.0664692E-1,NaN,NaN,4.8617113E-1,5.699123E-1,5.6025E-1,2.5255623E-1,5.6060606E-1,1.5854144E-1,3.0064315E-1,5.3378046E-1,7.0205027E-1,5.0942034E-1,4.438193E-1,1.5260965E-2,8.8415615E-2,NaN,7.5782254E-2,2.1591653E-1,6.124469E-1,NaN,1.4062697E-1,1.1155333E-1,2.1155185E-1,5.0912327E-1,5.139207E-1,4.0771595E-1,NaN,2.8600194E-2,8.567372E-2,5.2310094E-2,NaN,6.178583E-1,1.9637065E-1,6.4587027E-1,6.2876746E-2,1.0408145E-1,6.2234646E-1,3.6833683E-1,5.20417E-1,4.6125534E-1,5.186984E-1,NaN,4.331921E-2,NaN,7.1125396E-2,NaN,3.2851613E-1,5.180715E-1,2.5564092E-1,5.533352E-1,6.082027E-1,6.3195E-1,2.5445221E-2,5.2403396E-1,1.5429147E-1,NaN,6.051061E-1,2.2014622E-1,1.7441311E-1,1.24524176E-1,7.4147856E-1,5.2676153E-1,2.7563202E-1,3.6631387E-1,3.3367994E-1,3.9908153E-1,-5.541431E-2,5.892079E-1,2.0603808E-2,3.9320755E-1,6.34835E-1,7.249091E-1,2.5255623E-1,5.0451344E-1,2.9845078E-2,6.2801933E-1,1.2826334E-1,4.5892215E-1,6.3721305E-1,6.319064E-2,1.6266774E-1,7.935836E-1,NaN,6.1230993E-1,9.477775E-2,5.836135E-2,3.1894138E-1,NaN,6.7621124E-1,1.9831768E-1,4.3079785E-1,7.7438235E-1,9.809503E-2,7.2917086E-1,6.5065897E-1,2.2576548E-1,4.9897975E-1,6.2876746E-2,NaN,1.17749766E-1,6.300335E-1,6.233495E-2,5.144775E-2,8.242956E-2,6.323778E-2,6.0903907E-2,5.2405525E-2,5.5140574E-2,4.384043E-2,8.558296E-2,4.9308203E-2,4.2326957E-2,3.3054095E-2,4.833963E-2,2.4800822E-2,4.6295963E-2,5.7128675E-2,3.584262E-2,5.83695E-2,8.6398594E-2,2.3283644E-2,9.5558524E-2,6.1577994E-2,6.041309E-2,4.00243E-2,3.6992956E-2,1.544218E-2,1.6425824E-2,3.0348698E-2,5.927386E-2,3.4422584E-2,-1.26822E-2,4.305783E-2,-2.4103701E-2,2.465312E-2,1.0122005E-2,-4.885862E-2,2.386198E-3,3.3168145E-2,1.1844318E-2,-7.539392E-3,3.588321E-2,-2.2430299E-2,7.413358E-2,3.3711005E-2,-2.8130623E-2,3.9042078E-2,-3.017088E-3,-6.273483E-2,-7.605632E-2,9.113286E-4,-1.12040624E-1,-4.8841484E-2,-9.421467E-3,4.094582E-2,-9.32038E-3,-3.7320495E-2,9.820955E-3,7.4748196E-2,3.7822183E-2,-8.561656E-3,-8.710283E-3,2.9141802E-2,1.0184424E-2,-2.5525268E-2,2.3052244E-2,-8.239617E-3,1.0606682E-2,-2.982062E-2,-6.581436E-2,1.251767E-3,-4.3776045E-3,-4.6639852E-2,-3.3902E-2,2.3254467E-2,-3.9923187E-2,-5.2365147E-2,-2.956935E-2,-1.4964756E-2,4.386695E-3,-7.538494E-2,-5.8683516E-3,2.8529385E-2,-2.3264833E-2,-6.215879E-2,-6.455085E-2,-8.609641E-2,-3.4340605E-2,-5.7341557E-2,-1.5283976E-2,-7.2735175E-2,-6.553218E-2,-2.7781138E-2,2.2420652E-2,-4.73246E-2,-6.495453E-2,-2.2308486E-2,-7.6330006E-2,-8.839395E-2,-4.084484E-2,-5.6060437E-2,-3.8285363E-2,3.217834E-2,1.7552072E-2,-4.6396248E-2,1.6201612E-2,-2.8345488E-2,1.2746308E-2,-2.7759673E-2,-3.278517E-2,-7.353885E-2],"split_indices":[5,5,2,5,2,2,1,2,2,1,1,4,1,4,1,2,1,1,1,2,7,7,1,3,1,0,3,1,0,3,2,1,4,3,3,7,3,4,2,7,0,3,2,3,0,4,7,0,0,2,7,4,4,4,4,1,3,1,2,0,1,7,0,7,0,7,0,0,4,2,1,3,3,1,4,7,4,0,3,0,4,3,4,4,3,4,0,2,0,0,0,3,0,4,0,3,3,0,1,1,3,0,7,1,3,0,4,7,2,3,0,4,3,0,2,0,4,4,7,0,2,0,0,0,0,0,0,0,0,0,0,0,0,0,0,0,0,0,0,0,0,0,0,0,0,0,0,0,0,0,0,0,0,0,0,0,0,0,0,0,0,0,0,0,0,0,0,0,0,0,0,0,0,0,0,0,0,0,0,0,0,0,0,0,0,0,0,0,0,0,0,0,0,0,0,0,0,0,0,0,0,0,0,0,0,0,0,0,0,0,0,0,0,0,0,0,0,0,0,0,0,0,0,0,0,0,0,0,0,0,0],"split_type":[0,0,0,0,0,0,0,0,0,0,0,0,0,0,0,0,0,0,0,0,1,1,0,0,0,0,0,0,0,0,0,0,0,0,0,1,0,0,0,1,0,0,0,0,0,0,1,0,0,0,1,0,0,0,0,0,0,0,0,0,0,1,0,1,0,1,0,0,0,0,0,0,0,0,0,1,0,0,0,0,0,0,0,0,0,0,0,0,0,0,0,0,0,0,0,0,0,0,0,0,0,0,1,0,0,0,0,1,0,0,0,0,0,0,0,0,0,0,1,0,0,0,0,0,0,0,0,0,0,0,0,0,0,0,0,0,0,0,0,0,0,0,0,0,0,0,0,0,0,0,0,0,0,0,0,0,0,0,0,0,0,0,0,0,0,0,0,0,0,0,0,0,0,0,0,0,0,0,0,0,0,0,0,0,0,0,0,0,0,0,0,0,0,0,0,0,0,0,0,0,0,0,0,0,0,0,0,0,0,0,0,0,0,0,0,0,0,0,0,0,0,0,0,0,0,0,0,0,0,0,0],"sum_hessian":[3.1576387E4,1.8419287E4,1.3157101E4,1.5883136E4,2.5361501E3,4.3612373E3,8.795863E3,1.1050614E4,4.8325215E3,1.3648691E3,1.171281E3,1.4544647E3,2.9067722E3,6.5798506E3,2.2160127E3,5.642018E3,5.4085967E3,1.689488E3,3.1430334E3,1.2275591E3,1.3731001E2,1.2600976E2,1.0452712E3,2.9107325E1,1.4253574E3,2.1656538E3,7.4111847E2,1.4380671E3,5.141783E3,1.7686373E3,4.4737537E2,1.4551425E3,4.1868755E3,2.7100361E3,2.6985603E3,8.623108E2,8.271773E2,2.898877E3,2.4415654E2,4.2412277E2,8.0343634E2,1.0394565E2,3.3364372E1,3.9102646E1,8.690711E1,7.340717E2,3.111995E2,1.7980038E1,1.1127287E1,1.0711808E3,3.541766E2,3.3036868E2,1.8352852E3,6.4732104E2,9.379745E1,5.341127E2,9.0395447E2,1.8653354E3,3.276448E3,1.6020876E3,1.665497E2,4.3364682E2,1.3728552E1,7.4800397E2,7.071384E2,2.1034868E3,2.0833887E3,5.2125614E1,2.6579104E3,3.5425583E2,2.3443047E3,4.30929E2,4.313818E2,8.41873E1,7.4299E2,7.324324E2,2.1664443E3,2.1698355E2,2.7172989E1,2.0463766E2,2.194851E2,9.655154E1,7.068848E2,2.1246435E1,8.269921E1,1.9122643E1,1.424173E1,2.6398386E1,1.2704259E1,6.0568775E1,2.6338337E1,3.9931805E2,3.3475366E2,1.4198027E2,1.6921921E2,1.5766075E2,9.135201E2,2.0374342E2,1.504332E2,1.5604366E2,1.7432503E2,1.9327643E2,1.6420088E3,5.9876E2,4.856099E1,9.705942E0,8.40915E1,3.3979645E2,1.9431624E2,7.536701E2,1.5028438E2,1.5156752E3,3.4966022E2,1.1552162E3,2.1212317E3,1.163784E3,4.3830362E2,9.689474E1,6.965496E1,1.98794E2,2.3485281E2,3.6246054E2,3.8554346E2,6.771645E1,6.39422E2,8.992408E2,1.2042461E3,8.698356E2,1.2135531E3,2.8930365E1,2.319525E1,8.0544604E2,1.8524645E3,1.6873914E2,1.8551668E2,1.831931E3,5.123736E2,3.032734E2,1.27655556E2,9.787485E0,4.2159433E2,1.3477294E1,7.071001E1,1.346225E2,6.083675E2,5.0463678E2,2.277956E2,1.7572804E3,4.0916406E2,1.0917724E2,1.0780632E2,1.4893386E1,1.2279603E1,1.33365555E1,1.9130112E2,2.0317317E2,1.631193E1,3.2858757E1,6.3692783E1,1.7840253E2,5.284823E2,1.2021784E1,9.224652E0,4.2646355E1,4.0052856E1,9.990372E0,9.13227E0,1.0758299E1,1.5640086E1,3.6696835E1,2.3871943E1,1.4174558E1,1.2163779E1,3.825773E2,1.6740772E1,1.4983774E2,1.8491592E2,1.26940895E2,1.5039378E1,1.3339934E1,1.5587927E2,1.2016054E2,3.7500217E1,6.101525E1,8.525048E2,1.2253401E2,8.120941E1,5.3901653E1,9.653154E1,1.3035924E1,1.4300774E2,3.2908188E1,1.4141684E2,1.633207E2,2.9955729E1,5.852711E2,1.0567377E3,2.8795853E2,3.1080148E2,1.645545E1,3.2105537E1,5.7583855E1,2.6507647E1,4.5763206E1,2.9403323E2,9.981261E1,9.450363E1,1.5785516E2,5.9581494E2,1.20639786E2,2.9644588E1,1.4527987E3,6.287645E1,1.5164589E1,3.3449564E2,1.1127507E3,4.246539E1,1.4512671E3,6.6996466E2,4.4601263E2,7.1777136E2,4.229879E2,1.5315726E1,1.4722057E1,8.217268E1,4.9269474E1,2.0385489E1,4.724676E1,1.5154726E2,2.0448514E2,3.0367682E1],"tree_param":{"num_deleted":"0","num_feature":"9","num_nodes":"231","size_leaf_vector":"0"}},{"base_weights":[-7.710142E-3,5.5421245E-1,-7.947319E-1,6.5151733E-1,-4.368018E-2,-4.1590303E-1,-9.5656776E-1,7.4152446E-1,4.476737E-1,1.6160515E-1,-2.2621123E-1,-1.9317527E-1,-5.4247224E-1,-1.0545062E0,-6.7640644E-1,8.909857E-1,6.702504E-1,6.253541E-1,3.5410896E-1,1.2287466E-1,7.02393E-1,-3.4160286E-1,1.1606727E-1,-2.8879023E-1,1.1341251E-2,-7.4891764E-1,-4.0677926E-1,-7.393797E-1,-1.0862821E0,-7.33233E-1,-2.664989E-1,8.6246645E-1,1.0919839E0,5.937215E-1,7.6679635E-1,4.8643503E-1,6.884329E-1,2.3829955E-1,4.4484952E-1,2.947737E-1,-2.637766E-3,8.6618733E-1,1.8216476E-1,-1.3916214E-1,-4.2847914E-1,5.178475E-2,9.063134E-2,4.0966596E-2,-3.6715254E-1,2.8318983E-1,-1.6381353E-1,-6.2065136E-1,-8.746996E-1,-2.571915E-1,-5.161054E-1,-5.165398E-1,-8.6449826E-1,-8.513498E-1,-1.1285112E0,-4.4170427E-1,-7.880216E-1,2.699898E-1,-3.8153908E-1,9.338964E-1,7.692518E-1,1.1594533E0,8.94961E-1,6.970668E-1,5.544264E-1,8.607696E-1,7.195502E-1,7.1227187E-1,2.4032433E-1,8.083185E-1,6.395948E-1,4.5045832E-1,1.6881971E-1,4.2537978E-1,8.784096E-1,3.8665646E-1,-4.9303025E-2,3.7485227E-1,-6.395972E-2,1.140201E0,5.8306444E-1,2.8033918E-2,-5.5239764E-3,4.6738312E-1,-2.2212012E-1,-6.716713E-1,-3.4160542E-1,1.7241302E-1,-1.9989015E-1,3.5014808E-1,-1.6842093E-1,4.9582284E-2,-3.9131576E-1,6.426177E-1,2.6891584E-2,1.4954153E-1,-4.012108E-1,-7.284135E-1,-2.512565E-1,-3.859696E-1,-9.4182754E-1,-3.8873255E-1,-2.0053418E-2,-3.8938737E-1,-7.3373866E-1,-2.508457E-1,-7.824538E-1,-5.5517715E-1,-9.7202605E-1,-6.982735E-1,-1.0036331E0,-1.0019267E0,-1.2229995E0,-3.090118E-1,-8.277257E-1,-6.279347E-1,-8.701633E-1,-2.9530354E-2,6.2764776E-1,-4.6786836E-1,5.7518387E-1,4.949849E-2,5.9733674E-2,4.9401052E-2,3.5994582E-2,7.6441385E-2,6.1535407E-2,4.525385E-2,6.77284E-2,5.1358458E-2,3.4280047E-2,3.2733463E-2,5.2662212E-2,4.6669986E-2,5.8175605E-2,4.95964E-2,3.997032E-2,5.9759524E-2,3.6179177E-2,5.007043E-2,7.844226E-3,5.688927E-2,4.3267466E-2,3.6119778E-2,4.98474E-2,4.7133673E-2,1.8575206E-2,1.1369279E-2,-5.1451728E-2,2.7558995E-2,1.5798552E-2,6.384166E-2,1.7233565E-2,1.0675583E-2,3.0999327E-2,4.419209E-2,-1.5331831E-2,4.144646E-2,-0E0,-4.4343576E-2,-2.704521E-3,4.0977348E-2,9.664312E-2,6.36795E-2,-3.2601068E-3,8.362015E-3,8.1146434E-2,-5.000207E-2,-9.318999E-3,-1.382103E-2,-5.268698E-2,-1.7190052E-2,-4.7240853E-2,6.5521034E-3,6.092338E-2,1.3085375E-2,-3.741995E-2,4.4479717E-2,-9.32564E-3,9.64648E-3,-3.8345445E-2,-0E0,-2.7276643E-2,5.468744E-2,-6.868535E-3,1.9284924E-2,-2.9577935E-2,-4.320913E-2,1.5411287E-2,-1.7265404E-2,-6.934336E-2,-3.3255138E-2,-5.67957E-2,1.2160847E-2,-3.835625E-2,-3.988089E-2,3.802463E-3,-4.9031973E-2,-7.305058E-2,-1.4764642E-2,-3.7161447E-2,1.3324204E-2,-1.5069498E-2,2.3567083E-3,-2.6194131E-2,-4.8417304E-2,-6.1788782E-3,-2.1800786E-2,3.91128E-2,-6.661278E-2,-2.0942751E-2,-6.7895174E-2,-1.7450022E-2,-6.1758537E-2,-5.5849086E-3,-4.371526E-2,1.569057E-2,-6.469167E-2,-4.022178E-2,-5.121852E-2,-6.306097E-2,-7.7524036E-2,-6.754388E-2,-2.3159204E-2,4.302505E-2,-3.7756424E-2,-9.5947586E-2,-4.4670228E-2,-2.4287349E-2,-4.8900705E-2,-6.510306E-2,-7.954471E-3,5.5186193E-2,-1.20685E-2,-4.6165545E-2,7.101408E-2,-0E0],"categories":[1,4,5,7,8,3,4,5,9,10,11,12,1,2,3,4,7,8,9,11,0,1,3,4,7,8,10,11,12,0,1,2,7,10,12,0,1,2,3,5,6,7,8,0,1,3,4,5,6,9,11,12,0,1,2,3,4,5,7,8,9,12,5,7,8,1,2,5,6,1,3,4,5,7,8,1,2,6,7,9,11,5,8,0,2,6,10,11,12,0,1,2,3,8,10,11,12,0,1,3,4,5,6,9,10,11,12,0,1,3,4,5,6,7,9,11,12,0,1,8,10,11,12,0,1,2,4,5,9,10,11,12,9,1,3,5,6,2,3,4,5,6,7,8,3,1,2,3,10,11,12,0,2,3,4,8,9,10,11,4,8,9,12,3,5,6,9,1,4,6,8,9,2,4,10,2,5,7,8,11,12],"categories_nodes":[24,26,27,35,39,41,47,49,54,55,56,57,59,64,65,70,75,77,81,90,94,96,97,101,102,104,105,106,120,123],"categories_segments":[0,5,12,20,29,35,43,52,62,65,69,75,81,83,89,97,107,117,123,132,133,137,144,145,151,159,163,167,172,175],"categories_sizes":[5,7,8,9,6,8,9,10,3,4,6,6,2,6,8,10,10,6,9,1,4,7,1,6,8,4,4,5,3,6],"default_left":[0,0,0,0,0,0,0,0,0,0,0,0,0,0,0,0,0,0,0,0,0,0,0,0,1,0,1,1,0,0,0,0,0,0,0,1,0,0,0,1,0,1,0,0,0,0,0,1,0,1,0,0,0,0,1,1,1,1,0,1,0,0,0,0,1,1,0,0,0,0,1,0,0,0,0,1,0,1,0,0,0,1,0,0,0,0,0,0,0,0,1,0,0,0,1,0,1,1,0,0,0,1,1,0,1,1,1,0,0,0,0,0,0,0,0,0,0,0,0,0,1,0,0,1,0,0,0,0,0,0,0,0,0,0,0,0,0,0,0,0,0,0,0,0,0,0,0,0,0,0,0,0,0,0,0,0,0,0,0,0,0,0,0,0,0,0,0,0,0,0,0,0,0,0,0,0,0,0,0,0,0,0,0,0,0,0,0,0,0,0,0,0,0,0,0,0,0,0,0,0,0,0,0,0,0,0,0,0,0,0,0,0,0,0,0,0,0,0,0,0,0,0,0,0,0,0,0,0,0,0,0,0,0,0,0,0,0,0,0,0,0],"id":6,"left_children":[1,3,5,7,9,11,13,15,17,19,21,23,25,27,29,31,33,35,37,39,41,43,45,47,49,51,53,55,57,59,61,63,65,67,69,71,73,75,77,79,81,83,85,87,89,-1,91,93,95,97,99,101,103,105,107,109,111,113,115,117,119,121,123,125,127,129,131,133,135,137,139,141,143,145,147,149,151,153,155,157,159,161,163,165,167,-1,-1,169,171,173,175,177,179,181,183,-1,185,187,189,191,193,195,197,199,201,203,205,207,209,211,213,215,217,219,221,223,225,227,229,231,233,-1,235,237,239,-1,-1,-1,-1,-1,-1,-1,-1,-1,-1,-1,-1,-1,-1,-1,-1,-1,-1,-1,-1,-1,-1,-1,-1,-1,-1,-1,-1,-1,-1,-1,-1,-1,-1,-1,-1,-1,-1,-1,-1,-1,-1,-1,-1,-1,-1,-1,-1,-1,-1,-1,-1,-1,-1,-1,-1,-1,-1,-1,-1,-1,-1,-1,-1,-1,-1,-1,-1,-1,-1,-1,-1,-1,-1,-1,-1,-1,-1,-1,-1,-1,-1,-1,-1,-1,-1,-1,-1,-1,-1,-1,-1,-1,-1,-1,-1,-1,-1,-1,-1,-1,-1,-1,-1,-1,-1,-1,-1,-1,-1,-1,-1,-1,-1,-1,-1],"loss_changes":[1.3818959E4,1.060727E3,7.9775586E2,2.8744043E2,9.561899E1,1.0970984E2,2.4989355E2,1.1554785E2,7.966504E1,2.4989311E1,5.340461E1,2.7672813E1,6.936511E1,6.729541E1,5.4851196E1,1.9729248E1,5.4150635E1,1.4284424E1,3.2943756E1,2.4230068E1,6.611271E0,1.7672028E1,6.2231555E0,2.4948326E1,2.1424173E1,1.5590149E1,2.4376999E1,1.7004974E1,6.048877E1,3.290149E1,1.780897E1,2.0136963E1,5.367798E0,1.6445068E1,1.41397705E1,2.8622437E1,6.377075E0,2.0279121E1,1.4634216E1,1.5032124E1,1.4923991E1,4.350918E0,1.563376E0,1.5267902E1,1.47352295E1,0E0,7.819149E0,1.1981642E1,2.2252861E1,1.6139877E1,2.03532E1,1.9254211E1,1.6025421E1,1.970102E1,2.3655457E1,1.55891E1,1.2877472E1,2.1478394E1,6.17583E1,1.6627586E1,2.2663452E1,1.3758881E1,1.9613972E1,1.0308838E1,1.0622681E1,4.302063E0,3.317398E0,2.2098145E1,1.26588745E1,9.44458E0,1.2528931E1,8.190613E0,1.5964974E1,3.7066193E0,6.119568E0,1.5845604E1,2.003713E1,8.141174E0,7.6209908E0,9.735657E0,1.5719926E1,1.0405218E1,7.040926E0,5.957737E0,9.190069E0,0E0,0E0,1.0171942E1,1.0847955E1,1.6113754E1,1.2986481E1,1.3572276E1,1.2579498E1,1.4626019E1,1.6806475E1,0E0,1.7760162E1,1.457086E1,1.5517475E1,1.0562038E1,1.3164953E1,1.3893173E1,1.9223808E1,7.4954147E0,1.4824432E1,1.3116447E1,1.2467401E1,1.0220848E1,1.3082718E1,1.0947223E1,1.5161713E1,1.5260733E1,1.2199249E1,1.0732666E1,9.967285E0,1.3372803E1,1.7874023E1,1.8327848E1,1.2496445E1,1.4557083E1,1.439679E1,0E0,7.5964394E0,1.7075764E1,6.582187E0,0E0,0E0,0E0,0E0,0E0,0E0,0E0,0E0,0E0,0E0,0E0,0E0,0E0,0E0,0E0,0E0,0E0,0E0,0E0,0E0,0E0,0E0,0E0,0E0,0E0,0E0,0E0,0E0,0E0,0E0,0E0,0E0,0E0,0E0,0E0,0E0,0E0,0E0,0E0,0E0,0E0,0E0,0E0,0E0,0E0,0E0,0E0,0E0,0E0,0E0,0E0,0E0,0E0,0E0,0E0,0E0,0E0,0E0,0E0,0E0,0E0,0E0,0E0,0E0,0E0,0E0,0E0,0E0,0E0,0E0,0E0,0E0,0E0,0E0,0E0,0E0,0E0,0E0,0E0,0E0,0E0,0E0,0E0,0E0,0E0,0E0,0E0,0E0,0E0,0E0,0E0,0E0,0E0,0E0,0E0,0E0,0E0,0E0,0E0,0E0,0E0,0E0,0E0,0E0,0E0,0E0,0E0,0E0,0E0,0E0,0E0,0E0,0E0,0E0,0E0,0E0],"parents":[2147483647,0,0,1,1,2,2,3,3,4,4,5,5,6,6,7,7,8,8,9,9,10,10,11,11,12,12,13,13,14,14,15,15,16,16,17,17,18,18,19,19,20,20,21,21,22,22,23,23,24,24,25,25,26,26,27,27,28,28,29,29,30,30,31,31,32,32,33,33,34,34,35,35,36,36,37,37,38,38,39,39,40,40,41,41,42,42,43,43,44,44,46,46,47,47,48,48,49,49,50,50,51,51,52,52,53,53,54,54,55,55,56,56,57,57,58,58,59,59,60,60,61,61,62,62,63,63,64,64,65,65,66,66,67,67,68,68,69,69,70,70,71,71,72,72,73,73,74,74,75,75,76,76,77,77,78,78,79,79,80,80,81,81,82,82,83,83,84,84,87,87,88,88,89,89,90,90,91,91,92,92,93,93,94,94,96,96,97,97,98,98,99,99,100,100,101,101,102,102,103,103,104,104,105,105,106,106,107,107,108,108,109,109,110,110,111,111,112,112,113,113,114,114,115,115,116,116,117,117,118,118,119,119,120,120,122,122,123,123,124,124],"right_children":[2,4,6,8,10,12,14,16,18,20,22,24,26,28,30,32,34,36,38,40,42,44,46,48,50,52,54,56,58,60,62,64,66,68,70,72,74,76,78,80,82,84,86,88,90,-1,92,94,96,98,100,102,104,106,108,110,112,114,116,118,120,122,124,126,128,130,132,134,136,138,140,142,144,146,148,150,152,154,156,158,160,162,164,166,168,-1,-1,170,172,174,176,178,180,182,184,-1,186,188,190,192,194,196,198,200,202,204,206,208,210,212,214,216,218,220,222,224,226,228,230,232,234,-1,236,238,240,-1,-1,-1,-1,-1,-1,-1,-1,-1,-1,-1,-1,-1,-1,-1,-1,-1,-1,-1,-1,-1,-1,-1,-1,-1,-1,-1,-1,-1,-1,-1,-1,-1,-1,-1,-1,-1,-1,-1,-1,-1,-1,-1,-1,-1,-1,-1,-1,-1,-1,-1,-1,-1,-1,-1,-1,-1,-1,-1,-1,-1,-1,-1,-1,-1,-1,-1,-1,-1,-1,-1,-1,-1,-1,-1,-1,-1,-1,-1,-1,-1,-1,-1,-1,-1,-1,-1,-1,-1,-1,-1,-1,-1,-1,-1,-1,-1,-1,-1,-1,-1,-1,-1,-1,-1,-1,-1,-1,-1,-1,-1,-1,-1,-1,-1,-1],"split_conditions":[3E0,2E0,3.8815328E-1,1E0,4.1501674E-1,2.023891E-1,4.4920653E-1,2.6447767E-1,3.0953008E-1,7.248567E-1,5.0664175E-1,5.212572E-1,3.0930483E-1,1.1353792E-1,6.452894E-1,6.952332E-1,4.3127418E-1,3.0930483E-1,3.2752734E-1,2.0664692E-1,3.8028333E-1,2.5255623E-1,1.7270911E-2,5.7973877E-2,NaN,3.1317103E-1,NaN,NaN,1.5501846E-1,1.24858916E-1,4.418065E-1,1.503276E-1,3.974668E-1,2.614167E-1,2.1239556E-1,NaN,9.776975E-2,4.3677723E-1,7.358314E-1,NaN,1.6949064E-1,NaN,1.5067941E-1,1.5067941E-1,3.9320755E-1,5.178475E-2,6.1078006E-1,NaN,4.1043557E-2,NaN,3.4625596E-1,6.6994864E-1,2.3205343E-1,5.666475E-1,NaN,NaN,NaN,NaN,5.469321E-1,NaN,4.9795333E-1,1.5854079E-1,6.5789765E-1,3.0162805E-1,NaN,NaN,7.673018E-1,5.565766E-1,7.7438235E-1,5.980528E-1,NaN,3.783573E-1,2.2877395E-1,3.623442E-1,